tree
version=v4
num_class=1
num_tree_per_iteration=1
label_index=0
max_feature_idx=59
objective=regression
feature_names=open high low close trades volume vwap turnover returns high_low close_open sma_5 std_5 ema_5 sma_10 std_10 ema_10 sma_20 std_20 ema_20 sma_50 std_50 ema_50 rsi_5 rsi_10 rsi_20 macd macd_signal macd_diff bb_middle bb_std bb_upper bb_lower bb_width volume_sma_10 volume_sma_20 volume_ratio vwap_ratio close_lag_1 volume_lag_1 returns_lag_1 close_lag_2 volume_lag_2 returns_lag_2 close_lag_3 volume_lag_3 returns_lag_3 close_lag_5 volume_lag_5 returns_lag_5 close_lag_10 volume_lag_10 returns_lag_10 close_lag_20 volume_lag_20 returns_lag_20 hour day_of_week day_of_month month
feature_infos=[3936.77:73628.429999999993] [4099.3400000000001:73777] [3899:73575.339999999997] [3936.77:73628.419999999998] [89:276286] [2.7968700000000002:15659.93484] [3954.3753631499999:73668.148490659994] [35773.780433499996:391932872.79210073] [-0.096971806056387888:0.09402776307210492] [1.4355993016615208e-07:0.13241582778835953] [-0.097653978284460347:0.089397048378186419] [4042.1800000000003:73561.698000000004] [0:2288.5249953640009] [4045.9560560188579:73573.051778308698] [4189.1269999999995:73517.860000000001] [0.51493063075979761:2755.2403759215763] [4184.1523967783196:73503.757288580644] [4417.4234999999999:73419.021000000008] [1.2275638126476791:2647.8869551021485] [4368.0622485164595:73395.336642622759] [4636.6054000000004:73376.452799999999] [3.0541552642146317:2555.0933577310129] [4695.2134341976898:73330.16152425528] [0.038027018776148225:99.978804784833542] [0.6993360315258883:99.492426047911437] [3.2182217384901008:97.846316655088472] [-1632.210326748318:1180.0913672625538] [-1325.4277828680795:1049.6013968952498] [-705.6379167806798:454.88248139804091] [4417.4234999999999:73419.021000000008] [1.2275638126476791:2647.8869551021485] [4610.3805599338093:73777.492611526352] [3667.1758566114722:73257.395981218826] [0.00028991415123431408:0.4417034646484122] [5.8270569999995567:11471.078781] [7.9714634999997731:10248.238879] [0.040522253681345398:8.8773882919192584] [0.9360038825553415:1.0445643591859315] [3936.77:73628.419999999998] [2.1667700000000001:13913.90494] [-0.098905396311280591:0.09402776307210492] [3882.2199999999998:73628.419999999998] [2.7968700000000002:14683.85312] [-0.096971806056387888:0.07306933324474274] [3882.2199999999998:73628.419999999998] [0:13913.90494] [-0.10225373134328364:0.18428846808028121] [4130.6400000000003:73622.710000000006] [0:13779.95397] [-0.10225373134328364:0.09402776307210492] [4105.8800000000001:73628.419999999998] [0:15659.93484] [-0.10225373134328364:0.070809097918320019] [4055.1900000000001:73622.710000000006] [0:15109.114949999999] [-0.10225373134328364:0.18428846808028121] [0:23] [0:6] [1:31] [1:12]
tree_sizes=2987 3016 3025 3015 3016 3026 3019 3022 3028 3032 3023 3021 3013 3036 3020 3027 3020 3022 3028 3031 3029 3027 3024 3013 3029 3029 3024 3022 3012 3035 3047 3040 3039 3029 3030 3037 3038 3041 3043 3039 3036 3029 3038 3035 3025 3044 3032 3045 3022 3037 3046 3035 3046 3026 3039 3041 3025 3043 3019 3025 3045 3030 3043 3029 3030 3021 3028 3032 3034 3037 3032 3006 3033 3034 3003 2992 3031 3005 3036 3012 3017 3004 2974 3020 2995 2995 3002 3027 3018 3027 3015 3033 2997 3001 3046 3044 2989 3042 3022 3010 3012 3020 2986 3023 3044 3037 3028 3017 3004 2985 3037 3049 3019 3033 2939 2973 2982 2996 3014 3020 2971 3018 3023 2980 3008 3017 2966 3000 3021 2967 2969 3010 2981 2963 2981 3038 2977 3017 2940 2969 2961 2983 2968 2993 2947 2987 3016 2957 2977 2956 2970 2967 2933 2982 2893 2958 2929 2938 2979 2925 2933 2884 2867 2904 2896 2915 2855 2893 2898 2879 2880 2929 2827 2927 2875 2869 2869 2883 2812 2839 2842 2857 2838 2812 2838 2866 2857 2802 2796 2827 2771 2764 2763 2785 2834 2846 2820 2852 2796 2763 2862 2791 2799 2750 2769 2708 2757 2763 2863 2796 2769 2765 2740 2730 2787 2748 2776 2750 2722 2804 2779 2820 2750 2749 2712 2784 2740 2797 2731 2775 2776 2857 2755 2819 2745 2701 2675 2726 2718 2726 2818 2773 2749 2790 2716 2808 2774 2815 2704 2829 2720 2770 2734 2737 2713 2809 2740 2743 2806 2719 2690 2720 2742 2717 2720 2826 2765 2711 2783 2693 2730 2724 2703 2734 2695 2794 2820 2720 2746 2807 2720 2739 2715 2736 2717 2717 2687 2721 2706 2742 2710 2714 2757 2776 2710 2778 2681 2735 2800 2689 2665 2730 2737 2705 2772 2694 2725 2724 2734 2818 2758 2687 2770 2735 2714 2859 2695 2856 2835 2737 2791 2702 2794 2818 2706 2720 2713 2687 2736 2722 2686 2707 2779 2752 2749 2690 2695 2676 2663 2748 2667 2673 2724 2705 2795 2747 2728 2732 2745 2707 2668 2663 2758 2659 2675 2692 2685 2721 2676 2691 2785 2738 2757 2714 2754 2689 2698 2729 2686 2712 2726 2704 2681 2675 2714 2698 2687 2732 2710 2718 2710 2833 2689 2655 2693 2754 2697 2716 2755 2715 2671 2669 2821 2660 2654 2698 2824 2730 2819 2719 2677 2690 2685 2692 2670 2689 2690 2733 2756 2671 2701 2685 2687 2767 2657 2654 2763 2661 2700 2725 2694 2649 2695 2723 2689 2831 2821 2769 2742 2657 2748 2764 2739 2724 2710 2708 2673 2723 2673 2792 2764 2757 2683 2718 2848 2696 2709 2710 2729 2781 2696 2687 2680 2706 2717 2717 2666 2735 2701 2715 2714 2741 2720 2756 2741 2700 2682 2683 2663 2701 2763 2807 2697 2720 2753 2676 2773 2684 2783 2829 2685 2692 2697 2672 2684 2762 2756 2751 2728 2747 2715 2718 2708 2791 2689 2684 2705 2690 2692 2701 2707 2716 2723 2709 2702 2701 2726 2771 2688 2740 2703 2656 2719 2792 2771 2801 2771 2782 2769 2694 2679 2708 2772 2677 2686 2693 2697 2700 2676 2701 2712 2720 2716 2703 2671 2750 2704 2779 2745 2799 2708 2823 2697 2793 2736 2719 2707 2725 2694 2701 2678 2803 2684 2678 2683 2676 2714 2657 2701 2692 2763 2692 2770 2712 2770 2708 2698 2714 2711 2705 2710 2711 2715 2672 2694 2844 2738 2720 2790 2722 2675 2703 2691 2703 2693 2723 2742 2746 2736 2687 2802 2774 2762 2719 2717 2708 2680 2700 2694 2696 2718 2726 2712 2674 2709 2735 2723 2724 2713 2726 2750 2723 2836 2758 2713 2730 2716 2690 2723 2733 2730 2748 2767 2717 2751 2750 2723 2678 2712 2748 2703 2697 2712 2760 2711 2744 2737 2785 2713 2763 2646 2737 2686 2710 2670 2793 2787 2688 2724 2750 2751 2752 2788 2680 2703 2679 2669 2688 2672 2679 2742 2692 2685 2672 2732 2750 2726 2701 2675 2686 2744 2759 2698 2727 2751 2668 2668 2675 2681 2740 2849 2712 2853 2799 2758 2712 2698 2709 2694 2683 2719 2743 2735 2712 2754 2697 2688 2681 2798 2693 2736 2678 2745 2727 2683 2755 2688 2690 2775 2717 2769 2794 2724 2774 2812 2719 2726 2709 2738 2697 2692 2713 2689 2700 2685 2753 2744 2679 2720 2742 2718 2729 2724 2750 2737 2714 2725 2783 2723 2766 2693 2712 2676 2723 2646 2760 2764 2823 2741 2740 2700 2738 2754 2743 2739 2771 2809 2809 2797 2757 2675 2772 2686 2744 2687 2756 2723 2737 2709 2719 2773 2752 2789 2800 2677 2672 2725 2710 2670 2723 2734 2810 2683 2719 2793 2716 2729 2729 2690 2709 2758 2730 2714 2752 2786 2719 2731 2751 2707 2727 2732 2744 2715 2782 2756 2721 2707 2728 2716 2695 2737 2731 2773 2830 2747 2702 2706 2723 2713 2735 2763 2690 2704 2727 2690 2741 2704 2775 2719 2778 2724 2696 2739 2708 2720 2768 2677 2717 2708 2715 2713 2749 2712 2770 2735 2676 2666 2671 2676 2652 2698 2727 2717 2723 2707 2711 2726 2730 2730 2664 2700 2719 2703 2692 2722 2746 2767 2731 2768 2774 2751 2757 2718 2723 2702 2739 2773 2756 2766 2753 2746 2700 2687 2727 2756 2772 2719 2724 2721 2683 2734 2663 2695 2760 2757 2747 2749 2724 2688 2757 2783 2774 2784 2796 2750 2833 2698 2815 2740 2692 2747 2764 2706 2703 2748 2814 2703 2714 2783 2771 2710 2692 2735 2729 2736 2686 2763 2798 2783 2730 2707 2707 2745 2788 2830 2683 2736 2701 2687 2776 2675 2705 2664 2716 2688 2716 2681 2696 2706 2705 2736 2709 2708 2724 2715 2727 2791 2761 2728 2721 2765 2724 2792 2776 2778 2676 2701 2718 2674 2708 2697 2667 2783 2738 2693 2772 2797 2762 2705 2760 2796 2758 2751 2755 2739 2699 2753 2746 2750 2704 2752 2679 2787 2666 2672 2771 2766 2754 2704 2746

Tree=0
num_leaves=31
num_cat=0
split_feature=3 3 3 2 3 3 2 3 3 3 3 3 3 3 3 1 6 3 3 3 3 3 3 3 3 3 3 3 3 3
split_gain=9.53527e+13 1.46477e+13 1.23251e+13 2.15938e+12 1.36362e+12 1.26136e+12 9.17601e+11 4.24696e+11 2.86649e+11 1.80879e+11 1.52848e+11 1.33817e+11 1.19059e+11 1.1157e+11 1.09824e+11 4.10642e+10 3.78581e+10 3.51884e+10 3.36297e+10 2.78123e+10 2.57857e+10 2.11038e+10 2.10937e+10 1.98426e+10 1.85105e+10 1.83696e+10 1.80782e+10 1.21306e+10 9.53836e+09 9.23926e+09
threshold=35650.160000000011 52681.625000000007 18684.960000000003 25155.475000000002 44127.095000000008 62600.205000000009 12332.070000000002 30910.600000000002 40280.370000000003 58430.645000000011 66690.10000000002 21718.530000000002 48257.81500000001 28283.175000000003 8463.0150000000012 10179.020000000002 15499.775814430002 37919.885000000002 55886.135000000009 33186.335000000006 69214.630000000019 60431.085000000006 42287.905000000006 46281.30000000001 50010.910000000011 64898.460000000006 20197.835000000003 26991.065000000006 23496.850000000002 29631.690000000006
decision_type=2 2 2 2 2 2 2 2 2 2 2 2 2 2 2 2 2 2 2 2 2 2 2 2 2 2 2 2 2 2
left_child=2 4 6 11 8 9 14 13 17 18 25 26 23 27 -1 -16 -8 -2 -3 -9 -12 -11 -10 -6 -14 -7 -4 -5 -13 -15
right_child=1 5 3 7 12 10 16 19 22 21 20 28 24 29 15 -17 -18 -19 -20 -21 -22 -23 -24 -25 -26 -27 -28 -29 -30 -31
leaf_value=32200.799595428623 33695.416221144806 34582.900412428484 32822.439550878247 33167.784840555389 34112.841741439908 35037.941440521259 32541.494892661955 33452.430401055477 33924.160068100944 34818.567593220425 35241.057841987873 32990.561050017917 34303.78596914911 33304.731270146876 32315.994098104184 32407.112678201127 32701.421540431631 33805.043377689806 34712.616040302026 33573.350112953565 35372.302142100518 34920.854540466338 34009.534183444135 34213.986941962139 34412.855894811692 35145.443580382373 32897.823362398842 33230.591911198455 33059.553820433481 33361.92594176672
leaf_weight=15731 13965 7751 18398 17114 7914 10815 4528 7698 12558 9324 9262 14036 7772 14135 31647 20294 20248 15383 14061 12440 6280 10982 17069 12520 7788 6282 14009 13958 7790 14109
leaf_count=15731 13965 7751 18398 17114 7914 10815 4528 7698 12558 9324 9262 14036 7772 14135 31647 20294 20248 15383 14061 12440 6280 10982 17069 12520 7788 6282 14009 13958 7790 14109
internal_value=33528 34423.8 32855.7 33162.7 34011.6 34947.3 32411.9 33328.7 33863.6 34766.5 35180.6 32919.5 34254.2 33261.4 32316.5 32351.6 32672.2 33752.9 34666.5 33527.1 35294.1 34873.9 33973.3 34174.8 34358.4 35077.4 32855 33196 33015.2 33333.3
internal_weight=395861 169726 226135 133687 94969 74757 92448 79454 58975 42118 32639 54233 35994 59316 67672 51941 24776 29348 21812 20138 15542 20306 29627 20434 15560 17097 32407 31072 21826 28244
internal_count=395861 169726 226135 133687 94969 74757 92448 79454 58975 42118 32639 54233 35994 59316 67672 51941 24776 29348 21812 20138 15542 20306 29627 20434 15560 17097 32407 31072 21826 28244
is_linear=0
shrinkage=1


Tree=1
num_leaves=31
num_cat=0
split_feature=3 1 3 3 2 3 3 3 3 3 3 3 3 3 3 6 2 3 3 3 6 3 3 3 47 3 3 6 3 3
split_gain=8.60605e+13 1.29579e+13 1.13417e+13 1.48288e+12 1.40044e+12 1.18552e+12 1.1372e+12 3.4985e+11 2.55444e+11 1.55405e+11 1.45455e+11 1.43085e+11 1.05746e+11 9.44252e+10 6.86744e+10 5.419e+10 3.76384e+10 3.28662e+10 3.15432e+10 2.94394e+10 2.56312e+10 2.18975e+10 2.00147e+10 1.81414e+10 1.4979e+10 1.48797e+10 1.47219e+10 1.43896e+10 1.35438e+10 1.1028e+10
threshold=35975.395000000011 52828.290000000008 19564.570000000003 26444.945000000003 13174.090000000002 44516.960000000006 62129.145000000011 31393.320000000003 40588.80000000001 66315.49500000001 58093.465000000004 22627.440000000006 8830.2800000000007 48577.580000000009 28769.185000000001 17810.057531270006 10432.030000000001 24631.995000000006 38419.490000000013 68647.895000000004 55878.449120635007 33641.870000000003 60018.650000000001 42615.505000000012 15497.150000000003 64198.680000000008 46546.075000000004 7501.9993713700014 50547.005000000005 21036.280000000002
decision_type=2 2 2 2 2 2 2 2 2 2 2 2 2 2 2 2 2 2 2 2 2 2 2 2 2 2 2 2 2 2
left_child=2 5 4 11 12 8 10 14 18 25 20 29 27 26 -5 24 -14 -13 -2 -11 -3 -9 -12 -10 -6 -8 -7 -1 -15 -4
right_child=1 6 3 7 15 13 9 21 23 19 22 17 16 28 -16 -17 -18 -19 -20 -21 -22 -23 -24 -25 -26 -27 -28 -29 -30 -31
leaf_value=-1280.6040119386719 176.12293874814193 1003.0140374989847 -628.60812450635467 -289.28450371673904 -916.81842157234905 576.62561957077162 1411.2112854030502 -49.769169022126476 391.71812709268363 1608.2571914170385 1210.4107561235357 -478.35356870471588 -1141.3526970103578 754.89750386001037 -173.71982498237784 -690.11004591770507 -1050.879015516319 -365.33078125000003 280.03645434169624 1739.7816308128304 1119.095387326905 57.517837207543373 1309.6990857246312 469.86855457601325 -796.47669819391285 1505.2083322617978 664.02962962962965 -1196.7962402343751 853.70481897652883 -561.28514351851857
leaf_weight=11043 15473 7695 13927 24879 3046 7828 9180 7717 14037 9414 9390 15734 29863 7772 26600 15408 18690 10880 13831 7763 12448 12395 11047 15767 17114 7777 12528 9552 6263 10800
leaf_count=11043 15473 7695 13927 24879 3046 7828 9180 7717 14037 9414 9390 15734 29863 7772 26600 15408 18690 10880 13831 7763 12448 12395 11047 15767 17114 7777 12528 9552 6263 10800
internal_value=0.452869 858.088 -633.269 -307.543 -1015.66 465.801 1349.01 -160.484 329.994 1561.7 1170.1 -512.606 -1146.8 699.212 -229.57 -760.705 -1106.53 -432.149 225.168 1667.7 1074.75 16.3517 1264.08 433.061 -814.659 1454.32 630.418 -1241.73 798.989 -599.203
internal_weight=395861 168213 227648 122932 104716 93499 74714 71591 59108 34134 40580 51341 69148 34391 51479 35568 48553 26614 29304 17177 20143 20112 20437 29804 20160 16957 20356 20595 14035 24727
internal_count=395861 168213 227648 122932 104716 93499 74714 71591 59108 34134 40580 51341 69148 34391 51479 35568 48553 26614 29304 17177 20143 20112 20437 29804 20160 16957 20356 20595 14035 24727
is_linear=0
shrinkage=0.05


Tree=2
num_leaves=31
num_cat=0
split_feature=1 6 1 3 6 6 6 6 6 3 6 3 3 3 2 1 3 3 3 3 6 6 6 6 6 3 3 6 3 3
split_gain=7.76697e+13 1.16924e+13 1.02378e+13 1.33871e+12 1.26505e+12 1.06768e+12 1.02797e+12 2.93695e+11 2.14996e+11 1.56132e+11 1.47051e+11 1.25421e+11 1.06364e+11 9.71574e+10 5.15239e+10 4.07873e+10 3.9072e+10 2.7311e+10 2.45148e+10 2.32665e+10 2.26124e+10 2.02966e+10 1.98296e+10 1.72051e+10 1.72012e+10 1.71528e+10 1.62798e+10 1.52707e+10 1.48619e+10 6.86711e+09
threshold=36050.005000000012 52685.755189515003 19590.035000000003 26681.910000000003 13799.660684410001 44127.473977320005 62587.913466820006 31391.456259735005 40286.543742620008 23193.025000000005 58423.827066505008 66991.580000000016 9717.2050000000017 48257.81500000001 28727.715000000004 7788.7500000000009 17815.765000000003 56298.010000000009 38176.595000000008 21515.550000000007 25157.514329015004 64891.999300320014 33646.711991975004 60430.004370900009 42285.472719095007 69549.420000000013 45946.090000000004 50540.761219100008 11299.995000000001 29916.170000000002
decision_type=2 2 2 2 2 2 2 2 2 2 2 2 2 2 2 2 2 2 2 2 2 2 2 2 2 2 2 2 2 2
left_child=2 5 4 9 12 8 10 14 18 19 17 21 15 26 -5 -1 -6 -3 -2 -4 -11 -8 -9 -12 -10 -13 -7 -15 -14 -16
right_child=1 6 3 7 16 13 11 22 24 20 23 25 28 27 29 -17 -18 -19 -20 -21 -22 -23 -24 -25 -26 -27 -28 -29 -30 -31
leaf_value=-1210.7967600255615 162.12208543771044 962.50941049599737 -586.25899038708837 -268.80126285773991 -763.11412111576237 517.16991489955353 1362.5352979994443 -47.22244283671219 357.90013185232539 -432.36527144579696 1165.0261101622546 1565.3290952484272 -1042.4314675264764 709.53902045137784 -188.91440193878702 -1103.5366712450689 -655.4988185431539 1075.8060352310824 255.94366473795986 -498.03858725982622 -333.88716894920321 1467.987420916108 54.782716364580814 1257.350813677089 435.04790594291063 1682.2570887673537 613.94469257950539 810.58950320512827 -969.24224249120152 -137.98342226451652
leaf_weight=12573 13959 9244 18492 21748 18633 6272 10797 7740 12514 10885 9368 9218 15580 9327 14109 30038 15410 12528 13891 12543 12550 7903 12393 10938 17096 4754 14150 6240 12502 12466
leaf_count=12573 13959 9244 18492 21748 18633 6272 10797 7740 12514 10885 9368 9218 15580 9327 14109 30038 15410 12528 13891 12543 12550 7903 12393 10938 17096 4754 14150 6240 12502 12466
internal_value=0.43023 815.243 -601.562 -292.066 -964.809 442.398 1281.36 -144.881 308.645 -477.044 1117.97 1491.78 -1085.4 655.949 -211.729 -1135.19 -714.401 1027.7 208.918 -550.604 -379.628 1407.1 15.5675 1214.76 402.443 1605.11 584.223 750.045 -1009.85 -165.023
internal_weight=395861 168199 227662 122926 104736 93449 74750 68456 57460 54470 42078 32672 70693 35989 48323 42611 34043 21772 27850 31035 23435 18700 20133 20306 29610 13972 20422 15567 28082 26575
internal_count=395861 168199 227662 122926 104736 93449 74750 68456 57460 54470 42078 32672 70693 35989 48323 42611 34043 21772 27850 31035 23435 18700 20133 20306 29610 13972 20422 15567 28082 26575
is_linear=0
shrinkage=0.05


Tree=3
num_leaves=31
num_cat=0
split_feature=6 11 3 1 3 3 1 3 3 6 3 3 2 19 3 3 53 6 6 3 6 3 3 3 3 3 3 3 3 1
split_gain=7.01009e+13 1.07697e+13 9.06083e+12 1.52773e+12 1.00429e+12 9.28564e+11 7.34797e+11 3.12124e+11 1.97982e+11 1.26987e+11 1.19436e+11 9.95225e+10 9.25964e+10 8.14699e+10 7.69352e+10 3.01277e+10 2.97846e+10 2.66695e+10 2.44433e+10 2.23538e+10 1.98524e+10 1.85095e+10 1.73788e+10 1.72472e+10 1.68442e+10 1.22542e+10 1.2113e+10 8.20886e+09 7.6742e+09 7.32919e+09
threshold=35643.93509817501 52680.961000000003 18917.660000000003 25203.055000000004 43919.365000000005 62129.145000000011 12356.600000000002 30636.475000000002 40002.42500000001 66312.914161445005 57862.035000000011 47955.635000000009 21697.390000000003 8470.0452631357875 28086.005000000005 10292.145000000002 15494.625000000002 33182.294316195002 68640.028114340021 37731.615000000005 60010.214003705005 55332.215000000004 41915.35500000001 50010.910000000011 45497.970000000008 63928.005000000012 20335.505000000001 17340.165000000005 26881.755000000001 23530.710000000003
decision_type=2 2 2 2 2 2 2 2 2 2 2 2 2 2 2 2 2 2 2 2 2 2 2 2 2 2 2 2 2 2
left_child=2 4 6 12 8 10 13 14 19 25 21 24 26 -1 28 -15 -8 -9 -11 -2 -12 -3 -10 -13 -6 -7 -4 -18 -5 -14
right_child=1 5 3 7 11 9 16 17 22 18 20 23 29 15 -16 -17 27 -19 -20 -21 -22 -23 -24 -25 -26 -27 -28 -29 -30 -31
leaf_value=-1138.1404839405293 138.16453391698053 891.8859364873623 -599.50982806755985 -311.9493115689686 473.51193447660592 1265.8102098741404 -843.8700222235816 -73.021182099442825 323.44871818348292 1451.0908087454893 1086.7806868851706 659.15331556503202 -460.6090708500854 -1036.9729029133721 -172.33984312946836 -957.71964761434401 -722.43886349780416 39.089394509219915 1570.8668639053255 228.27900834256667 1181.8650156771632 997.73502082665823 402.81469613093651 759.79274855676715 571.86713605006753 1351.2137268443289 -535.68212280126875 -654.56094902212249 -260.87962966569177 -400.08191886670966
leaf_weight=15742 12479 6172 18353 15550 6305 7707 4534 9264 10922 9422 10877 9380 14053 33136 28239 18792 15576 12412 7774 15343 11083 12484 18719 7795 14061 9231 12493 6238 13960 7765
leaf_count=15742 12479 6172 18353 15550 6305 7707 4534 9264 10922 9422 10877 9380 14053 33136 28239 18792 15576 12412 7774 15343 11083 12484 18719 7795 14061 9231 12493 6238 13960 7765
internal_value=0.408714 768.314 -576.11 -309.075 415.052 1217.29 -951.277 -170.61 283.654 1409.53 1055.74 616.179 -517.899 -1038.5 -231.336 -1008.29 -727.265 -8.825 1505.24 187.86 1134.77 962.717 373.57 704.829 541.418 1312.35 -573.659 -703.028 -287.79 -439.068
internal_weight=395861 169754 226107 132089 95004 74750 94018 79425 57463 34134 40616 37541 52664 67670 57749 51928 26348 21676 17196 27822 21960 18656 29641 17175 20366 16938 30846 21814 29510 21818
internal_count=395861 169754 226107 132089 95004 74750 94018 79425 57463 34134 40616 37541 52664 67670 57749 51928 26348 21676 17196 27822 21960 18656 29641 17175 20366 16938 30846 21814 29510 21818
is_linear=0
shrinkage=0.05


Tree=4
num_leaves=31
num_cat=0
split_feature=3 3 1 1 3 1 20 3 3 3 3 3 0 3 3 3 3 0 13 3 2 3 3 3 3 1 3 3 3 3
split_gain=6.32664e+13 9.71617e+12 8.18062e+12 1.43025e+12 9.05713e+11 8.38361e+11 6.1057e+11 2.82408e+11 1.66233e+11 1.14701e+11 1.08089e+11 1.01338e+11 8.89279e+10 7.37745e+10 6.41466e+10 3.06337e+10 2.47198e+10 2.10376e+10 1.94776e+10 1.85235e+10 1.77644e+10 1.72821e+10 1.72012e+10 1.67803e+10 1.56749e+10 1.468e+10 1.27785e+10 1.03217e+10 8.38126e+09 7.05238e+09
threshold=35650.160000000011 52681.625000000007 18720.155000000002 25203.055000000004 43741.040000000001 62213.820000000007 12323.012100000002 30482.300000000007 39750.005000000012 66690.10000000002 58093.465000000004 47710.005000000012 21518.140000000003 8915.2850000000017 27945.700000000001 32701.905000000002 15501.115000000002 10606.690000000001 55884.220170435285 49541.235000000008 69160.305000000008 41590.930000000008 37494.380000000005 45497.970000000008 64490.010000000002 60094.295000000006 7223.9100000000008 20064.145000000004 23076.095000000005 29392.005000000001
decision_type=2 2 2 2 2 2 2 2 2 2 2 2 2 2 2 2 2 2 2 2 2 2 2 2 2 2 2 2 2 2
left_child=2 4 6 12 8 10 13 14 22 24 18 23 27 26 -5 -9 -8 -15 -3 -13 -11 -10 -2 -6 -7 -12 -1 -4 -14 -16
right_child=1 5 3 7 11 9 16 15 21 20 25 19 28 17 29 -17 -18 -19 -20 -21 -22 -23 -24 -25 -26 -27 -28 -29 -30 -31
leaf_value=-1105.7376653974395 125.57850265300522 858.61736081239087 -577.30586642833805 -276.2716516900818 444.9040856276838 1215.9268889511536 -801.89723703745619 -86.036687070880461 290.18484127832409 1395.4221574973033 1038.0773108864134 612.91340006457858 -453.7706588450763 -974.90782368509508 -194.21739115119067 31.080890976436987 -673.01187213132971 -903.42911636698648 959.63773537438999 712.50019175455418 1504.3792410714286 372.37885348112229 207.67548120840402 537.85881204684881 1308.9020351055713 1123.0593127844443 -1028.8895944253054 -519.15259377239352 -393.8021772918994 -144.16639430179978
leaf_weight=9384 10931 7737 16836 28009 7918 10707 4557 9285 9356 9270 9405 9291 10886 29755 14194 14005 20262 15739 12449 9387 6272 20209 15326 12551 7862 11055 12772 13955 12536 13960
leaf_count=9384 10931 7737 16836 28009 7918 10707 4557 9285 9356 9270 9405 9291 10886 29755 14194 14005 20262 15739 12449 9387 6272 20209 15326 12551 7862 11055 12772 13955 12536 13960
internal_value=0.388281 730.005 -547.227 -297.096 394.362 1156.4 -908.796 -161.994 265.055 1339.17 1003.01 578.748 -495.098 -986.617 -222.698 -15.6103 -696.676 -950.179 920.918 662.963 1439.39 346.368 173.498 501.901 1255.29 1084 -1061.44 -550.95 -421.674 -169.4
internal_weight=395861 169726 226135 133666 94969 74757 92469 79453 55822 34111 40646 39147 54213 67650 56163 23290 24819 45494 20186 18678 15542 29565 26257 20469 18569 20460 22156 30791 23422 28154
internal_count=395861 169726 226135 133666 94969 74757 92469 79453 55822 34111 40646 39147 54213 67650 56163 23290 24819 45494 20186 18678 15542 29565 26257 20469 18569 20460 22156 30791 23422 28154
is_linear=0
shrinkage=0.05


Tree=5
num_leaves=31
num_cat=0
split_feature=6 41 6 6 53 13 6 6 6 1 6 6 6 6 19 6 41 6 6 6 1 1 6 6 6 6 6 6 6 2
split_gain=5.70751e+13 8.41534e+12 7.67692e+12 9.94794e+11 9.76396e+11 7.55356e+11 7.53065e+11 1.90418e+11 1.71562e+11 1.5571e+11 1.08559e+11 9.33171e+10 7.92435e+10 6.32339e+10 3.19132e+10 2.7251e+10 2.58947e+10 2.34983e+10 2.10122e+10 1.82619e+10 1.54617e+10 1.49632e+10 1.35269e+10 1.35093e+10 1.28013e+10 1.27397e+10 9.91241e+09 8.60276e+09 6.93255e+09 4.00163e+09
threshold=36298.924716475005 52700.30000000001 19781.649865945004 27353.827935100006 13799.995000000001 62599.190998649639 44517.587383560007 31738.579944930007 23932.480419525004 40673.895000000011 58734.992575540011 66991.657062890023 9521.7815917050011 48874.515874600009 17810.22523267916 22026.379296930001 7760.9450000000006 56292.913652455005 29299.795443295003 38642.905129660008 11049.020000000002 64973.92500000001 34195.116455720003 70145.252783280026 42750.218325795009 46818.891564670012 60750.632935500005 25883.591846045005 51011.870873155007 6293.7700000000013
decision_type=2 2 2 2 2 2 2 2 2 2 2 2 2 2 2 2 2 2 2 2 2 2 2 2 2 2 2 2 2 2
left_child=2 6 4 8 12 10 9 18 15 19 17 21 16 25 -6 -4 29 -3 -5 -2 -14 -7 -9 -13 -11 -8 -12 -10 -15 -1
right_child=1 5 3 7 14 11 13 22 27 24 26 23 20 28 -16 -17 -18 -19 -20 -21 -22 -23 -24 -25 -26 -27 -28 -29 -30 -31
leaf_value=-1087.887290196888 152.39552104873607 824.39467878346886 -492.95908821643627 -199.73769441415544 -654.56345962686555 1168.2270760206909 474.33887360446573 -17.547136280357332 -330.63244021467494 321.72558355894438 1011.6883060161508 1350.0781922390306 -903.29386027848636 630.57519031864331 -559.88035537729627 -404.94290537492788 -950.99329510149846 927.12704592808041 -127.61684406943675 233.85747985174112 -833.96639256727894 1258.9558063074567 64.469713527302815 1466.2470048899756 387.45493780393264 551.50005693268838 1084.2630854212919 -267.92098620763971 707.65969453376204 -1022.5888149129962
leaf_weight=3150 15490 9169 20178 18915 18729 10826 9405 9347 7753 15499 9361 10643 18816 7783 16957 15588 25433 14166 21669 12377 14046 7832 10878 3272 14189 12405 9459 18561 4665 9195
leaf_count=3150 15490 9169 20178 18915 18729 10826 9405 9347 7753 15499 9361 10643 18816 7783 16957 15588 25433 14166 21669 12377 14046 7832 10878 3272 14189 12405 9459 18561 4665 9195
internal_value=0.157295 704.592 -511.664 -242.508 -822.749 1098.56 383.939 -98.7696 -383.303 273.462 958.819 1279.4 -930.442 569.546 -609.573 -454.599 -979.834 886.761 -161.23 188.576 -873.662 1206.31 26.5656 1377.39 353.14 518.226 1048.16 -286.398 659.463 -1039.25
internal_weight=395756 166541 229215 122889 106326 74728 91813 60809 62080 57555 42155 32573 70640 34258 35686 35766 37778 23335 40584 27867 32862 18658 20225 13915 29688 21810 18820 26314 12448 12345
internal_count=395756 166541 229215 122889 106326 74728 91813 60809 62080 57555 42155 32573 70640 34258 35686 35766 37778 23335 40584 27867 32862 18658 20225 13915 29688 21810 18820 26314 12448 12345
is_linear=0
shrinkage=0.05


Tree=6
num_leaves=31
num_cat=0
split_feature=3 3 2 3 3 3 1 3 3 3 3 3 3 3 3 3 3 32 6 3 3 6 3 3 3 3 3 3 3 3
split_gain=5.15129e+13 8.07587e+12 6.52119e+12 1.12219e+12 7.30797e+11 7.16842e+11 4.98327e+11 2.05662e+11 1.27964e+11 1.06465e+11 9.61866e+10 8.77834e+10 7.26415e+10 6.00512e+10 3.69774e+10 3.68583e+10 2.20647e+10 2.10212e+10 1.97184e+10 1.72856e+10 1.55701e+10 1.52396e+10 1.45161e+10 1.39844e+10 1.34802e+10 8.74887e+09 8.58956e+09 6.86846e+09 6.4383e+09 4.56892e+09
threshold=35279.760000000009 51872.56500000001 18652.115000000005 25167.150000000005 61805.135000000009 43400.585000000014 12356.600000000002 30044.535000000003 39517.245000000003 65957.485000000015 57372.005000000012 47252.820000000007 21333.580000000005 8656.4350000000013 27829.890000000003 32211.810000000001 68647.895000000004 10101.435623436288 16154.926715350002 59600.005000000012 54881.835000000014 49541.211036780012 37266.365000000013 41351.140000000007 45013.570000000014 63632.330000000009 22843.905000000002 19924.910000000003 6839.9850000000015 70976.875000000015
decision_type=2 2 2 2 2 2 2 2 2 2 2 2 2 2 2 2 2 2 2 2 2 2 2 2 2 2 2 2 2 2
left_child=2 5 6 12 10 8 13 14 22 25 20 24 27 28 -5 -9 -11 -15 -8 -12 -3 -13 -2 -10 -7 -6 -14 -4 -1 -18
right_child=1 4 3 7 9 11 18 15 23 16 19 21 26 17 -16 -17 29 -19 -20 -21 -22 -23 -24 -25 -26 -27 -28 -29 -30 -31
leaf_value=-1011.9874827223371 103.59469436813188 738.15409229779709 -523.42621865472017 -252.35428966756837 1071.9582265372169 387.89506224941971 -706.30812817212143 -99.622564177687877 251.43987841296931 1238.3383172413794 917.0588319201205 544.00395434544578 -422.33875605815831 -889.28200874274171 -166.04424640539764 15.08194135710073 1328.8974658869397 -823.46662747659946 -603.14052316123525 1002.7528248843748 837.42955742400454 633.23850836104361 178.94884815055161 326.31367663641731 469.32489278218821 1144.1049489906663 -361.62032759613544 -474.96195223409597 -948.14572440087147 1423.0639656230817
leaf_weight=6156 10920 6219 15369 26340 7725 9478 6151 14026 9376 10875 12619 12329 9285 30127 23464 13988 6156 20312 18749 11027 10823 7819 15410 18623 10959 9214 15629 13943 11016 1629
leaf_count=6156 10920 6219 15369 26340 7725 9478 6151 14026 9376 10875 12619 12329 9285 30127 23464 13988 6156 20312 18749 11027 10823 7819 15410 18623 10959 9214 15629 13943 11016 1629
internal_value=0.14943 653.464 -497.938 -272.406 1036.51 345.591 -819.848 -150.729 226.827 1201.96 891.757 504.574 -447.02 -890.273 -211.691 -42.3481 1284.34 -862.778 -628.626 957.021 801.202 578.634 147.697 301.241 431.56 1111.2 -384.249 -500.373 -971.032 1348.6
internal_weight=395756 171201 224555 132044 76287 94914 92511 77818 54329 35599 40688 40585 54226 67611 49804 28014 18660 50439 24900 23646 17042 20148 26330 27999 20437 16939 24914 29312 17172 7785
internal_count=395756 171201 224555 132044 76287 94914 92511 77818 54329 35599 40688 40585 54226 67611 49804 28014 18660 50439 24900 23646 17042 20148 26330 27999 20437 16939 24914 29312 17172 7785
is_linear=0
shrinkage=0.05


Tree=7
num_leaves=31
num_cat=0
split_feature=2 1 13 6 1 6 1 13 13 2 1 6 6 6 1 1 6 6 1 6 6 6 6 41 6 2 1 1 20 6
split_gain=4.64919e+13 6.85476e+12 6.25306e+12 8.12468e+11 7.96171e+11 6.1484e+11 6.13769e+11 1.61683e+11 1.30641e+11 1.26936e+11 9.94207e+10 6.81601e+10 5.8681e+10 5.20009e+10 3.31957e+10 2.21297e+10 2.00049e+10 1.92994e+10 1.8188e+10 1.50088e+10 1.23367e+10 1.13077e+10 1.07593e+10 1.0597e+10 1.02422e+10 9.0886e+09 8.59641e+09 7.5609e+09 7.18625e+09 6.29583e+09
threshold=36230.125000000007 52828.290000000008 19778.6981019669 27202.880507085003 13209.085000000001 62926.777129270005 44594.750000000007 31735.920409535833 23932.649238357797 40528.05000000001 58819.820000000007 67373.042983770007 9064.8522854950006 48579.649434920007 17366.880000000005 22075.750000000004 29126.370348270004 56603.363487670002 10732.010000000002 38642.905129660008 65399.190884810007 34195.116455720003 42894.952527180001 7223.9850000000006 60956.846174515005 70089.125000000015 46905.025000000001 50650.220000000008 15490.239100000001 26013.034111960002
decision_type=2 2 2 2 2 2 2 2 2 2 2 2 2 2 2 2 2 2 2 2 2 2 2 2 2 2 2 2 2 2
left_child=2 6 4 8 12 10 9 16 15 19 17 20 23 26 28 -4 -5 -3 -14 -2 -7 -9 -11 -1 -12 -13 -8 -15 -6 -10
right_child=1 5 3 7 14 11 13 21 29 22 24 25 18 27 -16 -17 -18 -19 -20 -21 -22 -23 -24 -25 -26 -27 -28 -29 -30 -31
leaf_value=-948.83186096798136 137.36983317498718 751.08472937091506 -444.9571985095015 -189.4675788409757 -672.66465134224461 1066.4668191151766 428.10622413518678 -16.391611719565283 -293.65577019881505 292.79301596406674 918.49387324589577 1227.1332752613241 -832.67404154555481 555.52841852161612 -508.58280003752509 -365.64124947776065 -119.38696320512054 842.3268842785036 -766.02879020984642 211.28133791475622 1149.1363857894064 58.598524995315522 353.59983016806547 -880.16843716226822 989.51546478576699 1324.2796199816121 493.36591411212379 629.54457695406927 -589.27998217961635 -241.57096169992897
leaf_weight=9239 15486 10710 20228 17220 3093 10714 9424 9343 9279 17062 10903 9184 29931 7772 18446 15558 24919 12630 15559 12343 7797 10882 12682 14342 9499 3263 10863 6205 15697 15483
leaf_count=9239 15486 10710 20228 17220 3093 10714 9424 9343 9279 17062 10903 9184 29931 7772 18446 15558 24919 12630 15559 12343 7797 10882 12682 14342 9499 3263 10863 6205 15697 15483
internal_value=0.14196 635.933 -461.787 -218.916 -742.593 991.613 346.624 -92.2505 -349.381 246.906 870.935 1162.12 -843.061 514.178 -556.23 -410.475 -148.025 800.459 -809.879 170.152 1101.29 23.9566 318.719 -907.071 951.561 1252.6 463.051 588.387 -603.006 -261.089
internal_weight=395756 166537 229219 122912 106307 74700 91837 62364 60548 57573 43742 30958 69071 34264 37236 35786 42139 23340 45490 27829 18511 20225 29744 23581 20402 12447 20287 13977 18790 24762
internal_count=395756 166537 229219 122912 106307 74700 91837 62364 60548 57573 43742 30958 69071 34264 37236 35786 42139 23340 45490 27829 18511 20225 29744 23581 20402 12447 20287 13977 18790 24762
is_linear=0
shrinkage=0.05


Tree=8
num_leaves=31
num_cat=0
split_feature=6 1 11 6 6 6 53 6 6 1 6 6 13 44 1 6 1 1 13 6 1 6 6 6 1 6 6 6 1 0
split_gain=4.19617e+13 6.57916e+12 5.31253e+12 8.81329e+11 5.95207e+11 5.84998e+11 4.39126e+11 1.61421e+11 1.04384e+11 8.68983e+10 7.82352e+10 7.17087e+10 6.35111e+10 4.92456e+10 3.27892e+10 2.31493e+10 1.85763e+10 1.83337e+10 1.77772e+10 1.41176e+10 1.34019e+10 1.2887e+10 1.19779e+10 1.14723e+10 1.05971e+10 9.39499e+09 7.27506e+09 6.00663e+09 4.84495e+09 4.56142e+09
threshold=35279.044063695001 51933.590000000004 18915.714000000004 25773.656852450003 61798.023854760009 43397.873575695012 12327.185000000003 30273.187735985004 39514.199493550004 66037.260000000024 57367.866332385005 47474.564788585005 22028.885091367469 8458.6750000000011 28118.610000000004 32700.413204560002 9924.9400000000005 68197.760000000009 16157.36952842223 59593.788856560008 45587.475000000006 54873.555322740009 37266.558066060003 41588.549481940012 49642.660000000011 20496.987814410004 63633.850754250008 23747.732349310001 70208.920000000027 6306.3600000000015
decision_type=2 2 2 2 2 2 2 2 2 2 2 2 2 2 2 2 2 2 2 2 2 2 2 2 2 2 2 2 2 2
left_child=2 5 6 12 10 8 13 14 22 26 21 20 25 29 -5 -9 -15 -11 -8 -12 -7 -3 -2 -10 -13 -4 -6 -14 -19 -1
right_child=1 4 3 7 9 11 18 15 23 17 19 24 27 16 -16 -17 -18 28 -20 -21 -22 -23 -24 -25 -26 -27 -28 -29 -30 -31
leaf_value=-935.45673626313624 93.26600561080194 665.12970425739366 -462.47119112490492 -220.56965266185691 967.21941048387089 355.42774410259898 -637.4613604952724 -77.078096321043319 231.75134961439591 1109.8635663887108 827.46269117996678 495.68268218390807 -350.51910876906902 -805.66532675061228 -140.37446676465115 19.421783664669938 -745.15327513039904 1182.3353861517978 -540.56573637575275 904.90871576274264 433.56252749770857 755.73891966759004 161.67889501594118 297.39328570489602 572.08583258441399 -407.13025029203254 1032.9141029284399 -295.71168404789495 1257.8699360341152 -868.06726713991975
leaf_weight=3151 10961 6154 20067 27952 7750 11043 6177 12422 10892 9354 12619 10875 14028 30218 23430 12437 21856 6008 20258 11026 10910 10830 15369 17116 7789 12413 9237 7767 3283 12364
leaf_count=3151 10961 6154 20067 27952 7750 11043 6177 12422 10892 9354 12619 10875 14028 30218 23430 12437 21856 6008 20258 11026 10910 10830 15369 17116 7789 12413 9237 7767 3283 12364
internal_value=0.13486 589.735 -449.446 -243.022 935.587 311.971 -735.987 -133.396 204.674 1084.75 804.773 455.516 -397.015 -803.564 -184.001 -28.799 -780.268 1159.28 -563.207 863.577 394.258 722.907 133.199 271.866 527.568 -441.321 1002.94 -330.988 1209.03 -881.754
internal_weight=395756 171216 224540 130516 76261 94955 94024 76241 54338 35632 40629 40617 54275 67589 51382 24859 52074 18645 26435 23645 21953 16984 26330 28008 18664 32480 16987 21795 9291 15515
internal_count=395756 171216 224540 130516 76261 94955 94024 76241 54338 35632 40629 40617 54275 67589 51382 24859 52074 18645 26435 23645 21953 16984 26330 28008 18664 32480 16987 21795 9291 15515
is_linear=0
shrinkage=0.05


Tree=9
num_leaves=31
num_cat=0
split_feature=3 19 3 6 32 3 3 13 3 3 1 3 3 3 13 14 3 6 38 20 3 3 3 6 1 3 3 3 3 44
split_gain=3.78719e+13 5.58393e+12 5.09537e+12 7.16017e+11 5.86095e+11 5.02037e+11 4.99013e+11 1.60141e+11 1.0354e+11 7.98762e+10 7.30347e+10 6.30738e+10 4.83738e+10 4.23414e+10 2.52497e+10 2.25861e+10 1.47182e+10 1.39991e+10 1.37802e+10 1.26381e+10 1.23852e+10 1.22238e+10 1.17167e+10 9.30391e+09 8.55839e+09 7.38068e+09 7.14393e+09 7.11822e+09 6.11945e+09 5.87019e+09
threshold=36303.885000000009 52660.0412031421 19435.890000000003 26681.534166845002 13105.800101433315 62600.205000000009 44516.960000000006 31394.170839540271 40996.750000000007 22961.845000000005 58504.040000000008 67373.520000000004 9241.7950000000019 48577.580000000009 28774.535362421131 17338.624500000002 38831.280000000006 55337.980535580013 24630.715000000004 7498.6235000000006 65411.92500000001 33954.220000000008 10876.180000000002 21035.302896310004 60522.510000000002 70149.99500000001 42896.220000000008 46546.075000000004 50547.005000000005 15492.490000000002
decision_type=2 2 2 2 2 2 2 2 2 2 2 2 2 2 2 2 2 2 2 2 2 2 2 2 2 2 2 2 2 2
left_child=2 6 4 9 12 10 8 14 16 23 17 20 19 27 -5 29 -2 -3 -11 -1 -7 -9 -14 -4 -12 -13 -10 -8 -15 -6
right_child=1 5 3 7 15 11 13 21 26 18 24 25 22 28 -16 -17 -18 -19 -20 -21 -22 -23 -24 -25 -26 -27 -28 -29 -30 -31
leaf_value=-852.01930981863597 126.95491363906231 653.40720165100356 -420.21081757361145 -187.29468571357108 -607.63206345578453 956.39895343177034 380.33197474406467 -27.332740027471722 268.61042110491866 -311.86650866465965 813.86223145054373 1107.7384875231558 -744.84202393216583 501.25437758264462 -114.64424533834629 -463.18407853630401 198.5573118692854 742.49149645314299 -239.70971841365409 -784.3461537280167 1037.0185705086931 48.449448344404189 -687.8210943076374 -363.83502231982146 878.91379796416118 1195.1040219378428 319.26048489163111 441.17362478981505 567.89580713952967 -532.35950291873723
leaf_weight=10849 16988 6135 15470 21815 3102 12326 7816 9310 15494 12560 9334 9177 25238 7744 26473 15452 12427 15684 13983 18949 7765 12420 14010 13889 11032 3282 12642 12489 6205 15696
leaf_count=10849 16988 6135 15470 21815 3102 12326 7816 9310 15494 12560 9334 9177 25238 7744 26473 15452 12427 15684 13983 18949 7765 12420 14010 13889 11032 3282 12642 12489 6205 15696
internal_value=0.128118 573.951 -416.791 -203.275 -677.071 894.838 312.729 -96.7399 222.796 -336.712 781.004 1042.37 -760.954 463.829 -147.465 -507.968 157.205 717.443 -273.854 -808.985 987.558 15.9813 -724.488 -393.541 849.1 1130.75 291.368 417.754 530.899 -544.781
internal_weight=395756 166540 229216 125920 103296 74735 91805 70018 57551 55902 42185 32550 69046 34254 48288 34250 29415 21819 26543 29798 20091 21730 39248 29359 20366 12459 28136 20305 13949 18798
internal_count=395756 166540 229216 125920 103296 74735 91805 70018 57551 55902 42185 32550 69046 34254 48288 34250 29415 21819 26543 29798 20091 21730 39248 29359 20366 12459 28136 20305 13949 18798
is_linear=0
shrinkage=0.05


Tree=10
num_leaves=31
num_cat=0
split_feature=3 44 3 50 3 3 20 3 3 3 6 3 3 2 1 3 2 31 29 2 3 1 3 3 3 3 6 3 6 6
split_gain=3.41992e+13 5.36607e+12 4.33429e+12 7.70323e+11 5.12453e+11 4.53721e+11 3.00837e+11 1.38608e+11 9.1768e+10 7.09068e+10 6.13641e+10 5.41208e+10 5.15217e+10 4.07845e+10 2.63964e+10 2.27301e+10 1.52814e+10 1.20294e+10 1.16443e+10 1.08659e+10 1.0697e+10 1.01168e+10 9.98117e+09 9.42736e+09 7.92799e+09 7.12623e+09 6.91099e+09 6.05124e+09 4.08184e+09 3.24885e+09
threshold=35279.760000000009 52664.755000000012 18297.005000000005 25162.475000000002 43589.385000000009 61805.135000000009 12323.012100000002 29916.170000000002 39517.245000000003 65957.485000000015 47709.79195276001 57611.740000000013 21206.290000000005 8903.220000000003 32299.460000000003 27631.865000000002 68586.300000000017 15578.134341410019 10438.562750000003 45409.330000000009 41759.010000000002 50095.535000000011 37494.380000000005 59600.005000000012 55332.215000000004 7037.8200000000006 22843.676313085005 63632.330000000009 19924.576163840004 70974.292334855025
decision_type=2 2 2 2 2 2 2 2 2 2 2 2 2 2 2 2 2 2 2 2 2 2 2 2 2 2 2 2 2 2
left_child=2 4 6 12 8 11 13 15 22 27 19 24 28 25 -9 -5 -11 -8 -15 -6 -10 -12 -2 -13 -3 -1 -14 -7 -4 -18
right_child=1 5 3 7 10 9 17 14 20 16 21 23 26 18 -16 -17 29 -19 -20 -21 -22 -23 -24 -25 -26 -27 -28 -29 -30 -31
leaf_value=-819.96843363222547 87.91181971307067 620.6695687029021 -427.73858464298087 -208.32506656983401 324.20089214672186 872.7716104392108 -589.57080709732588 -82.222665359382347 213.27992745579959 1008.0497616865262 456.86245539024844 751.33320628006175 -346.28392553050247 -717.97961365159426 12.474753103590261 -139.72415743250426 1083.4300977198698 -499.53945066683355 -665.85956074413753 395.20273875322937 273.92206263556892 531.656256424258 149.47934664836754 816.68168580989425 691.36485766758506 -760.30811147941392 -294.30218257529106 932.61065412382413 -389.9921736473093 1163.5840452261307
leaf_weight=7692 12551 6237 16965 24814 9426 7855 4623 15561 12613 10910 10788 11019 10827 28352 13961 23520 6140 18791 17228 12580 17173 7783 13844 11057 10890 14330 15617 9142 12395 1592
leaf_count=7692 12551 6237 16965 24814 9426 7855 4623 15561 12613 10910 10788 11019 10827 28352 13961 23520 6140 18791 17228 12580 17173 7783 13844 11057 10890 14330 15617 9142 12395 1592
internal_value=0.28981 531.784 -405.648 -224.427 285.878 849.698 -671.777 -122.804 188.087 978.817 421.275 732.318 -366.208 -725.274 -37.4401 -174.943 1046.16 -517.316 -698.28 364.79 248.243 488.208 120.204 784.064 665.62 -781.147 -315.585 904.957 -411.803 1099.93
internal_weight=396276 171600 224676 133660 96758 74842 91016 77856 56181 35639 40577 39203 55804 67602 29522 48334 18642 23414 45580 22006 29786 18571 26395 22076 17127 22022 26444 16997 29360 7732
internal_count=396276 171600 224676 133660 96758 74842 91016 77856 56181 35639 40577 39203 55804 67602 29522 48334 18642 23414 45580 22006 29786 18571 26395 22076 17127 22022 26444 16997 29360 7732
is_linear=0
shrinkage=0.05


Tree=11
num_leaves=31
num_cat=0
split_feature=2 3 2 47 3 3 1 3 13 3 3 3 6 3 3 3 3 2 3 53 3 6 3 3 3 2 3 6 6 13
split_gain=3.08649e+13 4.84212e+12 3.91303e+12 6.95343e+11 4.38455e+11 4.30795e+11 2.71865e+11 1.25527e+11 7.17112e+10 7.16449e+10 5.88038e+10 5.27923e+10 4.65382e+10 3.70366e+10 2.6115e+10 1.85841e+10 1.40124e+10 1.20806e+10 1.10436e+10 1.08001e+10 9.66598e+09 9.1955e+09 7.94113e+09 7.66122e+09 7.52079e+09 6.75312e+09 5.34726e+09 4.9911e+09 4.62373e+09 3.58054e+09
threshold=35215.410000000011 51872.56500000001 18271.010000000002 25164.105000000003 61496.05000000001 43184.705000000009 12356.600000000002 29800.765000000003 65946.308899898853 39252.620000000003 47049.695000000007 57121.225000000013 21330.835984285004 8737.6000000000022 32211.810000000001 27481.925000000003 68127.015000000014 9899.9800000000014 49149.985000000008 15494.625000000002 59270.745000000003 41347.533905295008 54459.655000000006 37039.930000000008 45013.570000000014 63562.05000000001 23356.025000000005 6686.8290574850007 20062.546370450003 70984.382080255513
decision_type=2 2 2 2 2 2 2 2 2 2 2 2 2 2 2 2 2 2 2 2 2 2 2 2 2 2 2 2 2 2
left_child=2 5 6 12 11 9 13 15 25 23 24 22 28 27 -9 -5 -10 -15 -12 -8 -13 -11 -3 -2 -7 -6 -14 -1 -4 -18
right_child=1 4 3 7 8 10 19 14 16 21 18 20 26 17 -16 -17 29 -19 -20 -21 -22 -23 -24 -25 -26 -27 -28 -29 -30 -31
leaf_value=-793.33293345260336 74.933690178000433 558.60906069054261 -404.78469589993568 -200.06993914491218 825.61174107142858 297.53921479735249 -559.92706976289185 -80.234286598401297 950.65077742279027 191.38024481243326 412.87776354758665 702.06837091140051 -314.96390143135272 -688.43080475179693 11.868090484495006 -137.04746750344245 1023.2147562240664 -638.39696408803525 484.77231272103739 -474.47056255265528 766.24527906765002 249.92885307110737 636.64305222365749 132.21357510354648 358.49737405070061 885.88229545204274 -267.11421454824853 -733.71646620604372 -365.31033204384266 1105.8567447751743
leaf_weight=4663 9382 4663 18447 23232 9520 11029 4602 17074 9390 11004 12493 12596 15600 26853 14013 23560 7712 21906 9331 18806 10983 17171 10838 15452 9349 9081 9331 14208 12408 1579
leaf_count=4663 9382 4663 18447 23232 9520 11029 4602 17074 9390 11004 12493 12596 15600 26853 14013 23560 7712 21906 9331 18806 10983 17171 10838 15452 9349 9081 9331 14208 12408 1579
internal_value=0.27532 505.266 -385.313 -213.116 801.864 267.386 -638.138 -116.597 924.53 172.489 386.585 684.843 -347.86 -688.971 -38.7176 -168.338 993.726 -665.952 443.617 -491.271 731.962 227.062 613.169 110.574 325.506 855.036 -297.055 -748.448 -388.911 1037.26
internal_weight=396276 171573 224703 133665 76362 95211 91038 77879 37282 53009 42202 39080 55786 67630 31087 46792 18681 48759 21824 23408 23579 28175 15501 24834 20378 18601 24931 18871 30855 9291
internal_count=396276 171573 224703 133665 76362 95211 91038 77879 37282 53009 42202 39080 55786 67630 31087 46792 18681 48759 21824 23408 23579 28175 15501 24834 20378 18601 24931 18871 30855 9291
is_linear=0
shrinkage=0.05


Tree=12
num_leaves=31
num_cat=0
split_feature=3 32 1 1 6 3 2 3 3 3 3 3 3 3 32 32 3 6 3 6 41 13 3 3 3 3 3 3 3 3
split_gain=2.78572e+13 4.02628e+12 3.82642e+12 5.71843e+11 4.34756e+11 3.6948e+11 3.53481e+11 9.3597e+10 7.36542e+10 6.98232e+10 6.06734e+10 4.15166e+10 4.08596e+10 3.17203e+10 2.23403e+10 1.23172e+10 1.22828e+10 1.0556e+10 9.40345e+09 9.24925e+09 8.76639e+09 7.23401e+09 6.60663e+09 6.41278e+09 6.32483e+09 5.52351e+09 5.44153e+09 4.38314e+09 3.73036e+09 2.58708e+09
threshold=36527.81500000001 52281.76589347548 20364.855000000003 13822.380000000003 27628.942389905005 62929.92500000001 44450.805000000008 32211.810000000001 24280.145000000004 40996.750000000007 58740.55000000001 67373.520000000004 9446.0300000000007 48873.500000000007 17706.609294837417 7724.424635233785 56602.915000000008 29630.716937545003 22354.955000000005 38827.208922335005 11297.85 65393.215652099003 34445.06500000001 46820.005000000012 60961.015000000007 70149.99500000001 42748.280000000006 26266.880000000005 51015.42500000001 54459.655000000006
decision_type=2 2 2 2 2 2 2 2 2 2 2 2 2 2 2 2 2 2 2 2 2 2 2 2 2 2 2 2 2 2
left_child=2 6 3 12 8 10 9 17 18 19 16 21 15 23 -5 -1 29 -6 -4 -2 -14 -7 -9 -8 -12 -13 -11 -10 -15 -3
right_child=1 5 4 14 7 11 13 22 27 26 24 25 20 28 -16 -17 -18 -19 -20 -21 -22 -23 -24 -25 -26 -27 -28 -29 -30 -31
leaf_value=-727.28419814655444 112.6928324102024 541.13405283505153 -332.52484893276437 -457.35838706656682 -130.33231775849265 825.22612174861808 330.47650981114322 -3.7631948456309114 -217.85841705069126 227.65794207751497 710.6590037611229 950.13055736991089 -630.12103061079551 440.23275920984116 -383.86439055209956 -665.88133228898096 652.30260759293014 -78.308052645228329 -277.56921787174247 170.49961548341807 -577.84234600372486 888.60227987848566 53.639711684457531 385.12143762475051 766.40971799979036 1025.8785955228457 271.53818309606424 -177.2012244626614 496.68535562204164 595.20163572634044
leaf_weight=12473 15578 3104 15481 18688 20394 10719 9397 9304 10850 14036 10901 9186 22000 7682 23148 23659 12617 18683 15656 12450 12618 7764 10867 12525 9539 3261 14226 17040 4727 7703
leaf_count=12473 15578 3104 15481 18688 20394 10719 9397 9304 10850 14036 10901 9186 22000 7682 23148 23659 12617 18683 15656 12450 12618 7764 10867 12525 9539 3261 14226 17040 4727 7703
internal_value=0.261555 495.515 -354.594 -563.233 -155.991 767.044 271.409 -60.3081 -252.032 194.29 673.726 899.386 -649.885 397.857 -416.694 -687.078 618.794 -105.459 -304.893 138.371 -611.066 851.848 27.1623 361.698 736.677 969.976 249.746 -193.018 461.737 579.672
internal_weight=396276 165415 230861 112586 118275 74794 90621 59248 59027 56290 43864 30930 70750 34331 41836 36132 23424 39077 31137 28028 34618 18483 20171 21922 20440 12447 28262 27890 12409 10807
internal_count=396276 165415 230861 112586 118275 74794 90621 59248 59027 56290 43864 30930 70750 34331 41836 36132 23424 39077 31137 28028 34618 18483 20171 21922 20440 12447 28262 27890 12409 10807
is_linear=0
shrinkage=0.05


Tree=13
num_leaves=31
num_cat=0
split_feature=2 2 3 6 31 6 2 1 6 1 6 6 3 6 3 3 1 1 6 1 2 2 6 3 1 6 13 3 3 31
split_gain=2.51419e+13 3.78863e+12 3.31881e+12 4.92776e+11 3.47648e+11 3.47594e+11 3.33545e+11 1.0776e+11 6.56354e+10 4.72688e+10 4.53368e+10 4.45279e+10 3.69989e+10 3.30233e+10 2.02758e+10 1.22124e+10 9.75402e+09 8.85609e+09 7.85624e+09 7.47541e+09 7.29868e+09 7.09425e+09 7.04866e+09 7.00802e+09 7.00749e+09 6.76965e+09 6.36674e+09 6.30633e+09 5.13384e+09 3.60679e+09
threshold=35906.510000000002 52603.105000000003 19262.355000000003 26266.963754305001 13246.42400831144 43916.39776864001 62059.400000000001 30979.270000000004 40000.072836705011 66750.365000000005 22621.172050500001 57855.993482665006 47955.635000000009 9341.5881123050003 28464.855000000007 17142.010000000006 7513.9250000000011 33712.810000000005 69544.620441510007 37984.090000000004 24242.090000000004 59950.220000000008 11030.373665805002 42115.865000000013 55457.655000000006 64481.513852565004 50544.671884974312 45946.090000000004 20684.540000000005 16228.474251508716
decision_type=2 2 2 2 2 2 2 2 2 2 2 2 2 2 2 2 2 2 2 2 2 2 2 2 2 2 2 2 2 2
left_child=2 5 4 10 13 8 11 14 19 25 28 24 27 16 -5 29 -1 -9 -11 -2 -12 -13 -15 -10 -3 -8 -14 -7 -4 -6
right_child=1 6 3 7 15 12 9 17 23 18 20 21 26 22 -16 -17 -18 -19 -20 -21 -22 -23 -24 -25 -26 -27 -28 -29 -30 -31
leaf_value=-694.61496758418002 87.328177949827648 532.04861025360947 -349.42609809056052 -160.08610647941845 -484.27328919799606 288.68106164782688 764.73386108059674 -31.620772255276275 195.36863678445857 884.7377773616704 -261.42261445541322 651.56753966709402 400.20392390477855 -602.98598229342326 -97.310234168016137 -384.21458616496176 -636.84794978612933 32.941728071822489 961.78160200250318 140.60467052959197 -206.93930651020079 708.32596361671472 -556.65971044354205 244.48342472167883 596.95506131699301 825.81282611215943 463.43108015329284 345.78915165463059 -307.39255364719321 -433.05748694298336
leaf_weight=10977 12510 6251 15353 24842 4728 7843 10810 9295 12603 10681 14169 10919 10778 23720 26674 13979 21859 12394 4794 13900 10857 11104 12558 17141 12422 7817 6314 12601 13788 12595
leaf_count=10977 12510 6251 15353 24842 4728 7843 10810 9295 12603 10681 14169 10919 10778 23720 26674 13979 21859 12394 4794 13900 10857 11104 12558 17141 12422 7817 6314 12601 13788 12595
internal_value=0.248477 463.324 -342.274 -172.817 -557.221 251.475 728.679 -88.22 172.736 844.021 -287.147 632.026 369.27 -619.831 -127.582 -418.981 -656.159 5.27294 908.605 115.368 -237.786 680.185 -586.95 223.673 575.227 790.366 423.561 323.881 -329.538 -447.036
internal_weight=396276 168488 227788 127372 100416 93690 74798 73205 56154 34102 54167 40696 37536 69114 51516 31302 32836 21689 15475 26410 25026 22023 36278 29744 18673 18627 17092 20444 29141 17323
internal_count=396276 168488 227788 127372 100416 93690 74798 73205 56154 34102 54167 40696 37536 69114 51516 31302 32836 21689 15475 26410 25026 22023 36278 29744 18673 18627 17092 20444 29141 17323
is_linear=0
shrinkage=0.05


Tree=14
num_leaves=31
num_cat=0
split_feature=41 2 3 3 3 3 44 6 3 2 6 3 6 3 1 3 19 1 3 1 3 3 2 13 13 6 3 6 1 3
split_gain=2.26928e+13 3.55986e+12 2.87756e+12 4.58392e+11 3.23199e+11 3.17365e+11 2.55911e+11 7.8936e+10 5.67537e+10 5.27507e+10 4.50436e+10 3.91538e+10 3.90787e+10 2.99256e+10 1.82731e+10 1.07087e+10 8.33815e+09 7.55345e+09 7.14237e+09 7.12249e+09 7.06997e+09 6.8911e+09 6.57082e+09 6.19715e+09 5.76537e+09 5.76268e+09 5.69779e+09 5.30433e+09 5.13101e+09 2.825e+09
threshold=35283.310000000005 51816.155000000006 19060.195000000003 26103.425000000007 61496.05000000001 43400.585000000014 13179.295000000002 30634.969788990002 39252.620000000003 65883.220000000016 22352.209224345002 57121.225000000013 47252.608304695001 9156.5850000000009 28499.995000000006 68127.015000000014 10875.457615118146 41402.585000000006 16680.785000000003 33274.630000000012 59270.745000000003 49541.235000000008 7027.8750000000009 24270.512731974421 45500.711344566742 54459.786038170008 37039.930000000008 20681.958037580003 63712.295000000006 70976.875000000015
decision_type=2 2 2 2 2 2 2 2 2 2 2 2 2 2 2 2 2 2 2 2 2 2 2 2 2 2 2 2 2 2
left_child=2 5 6 10 11 8 13 14 26 28 27 25 24 22 -5 -11 -15 -10 -8 -9 -13 -14 -1 -12 -7 -3 -2 -4 -6 -17
right_child=1 4 3 7 9 12 18 19 17 15 23 20 21 16 -16 29 -18 -19 -20 -21 -22 -23 -24 -25 -26 -27 -28 -29 -30 -31
leaf_value=-669.36213967636945 64.049901512013605 478.84724919527901 -336.47328346498455 -153.79699417647194 707.75587734465057 261.71009394313882 -441.09406141121264 -40.210887637823227 164.28737913611278 814.5421818181818 -250.47947112625423 602.07887424579235 361.25608151292556 -578.40664158713059 -94.202498361760988 877.76108438434539 -531.38167909207732 216.43950216678064 -386.99629597146702 19.409059726453521 656.96527360466177 421.24689537837048 -614.56417261904767 -199.02712075465274 314.96628768949893 545.33020458736746 113.4295819311416 -294.76589062246057 760.23547620356123 950.78400000000011
leaf_weight=7699 9393 4660 20034 26427 9543 10962 9485 9295 11029 9350 15641 12596 12352 28420 25061 7691 14105 18740 17103 10865 10983 7816 18900 9351 9474 10845 15452 12306 9098 1600
leaf_count=7699 9393 4660 20034 26427 9543 10962 9485 9295 11029 9350 15641 12596 12352 28420 25061 7691 14105 18740 17103 10865 10983 7816 18900 9351 9474 10845 15452 12306 9098 1600
internal_value=0.236054 433.219 -330.408 -176.269 687.526 229.262 -538.122 -91.9507 150.554 792.844 -281.643 587.063 335.128 -588.828 -124.79 852.319 -562.809 197.118 -406.295 -8.0794 627.645 384.505 -630.425 -231.228 286.399 525.349 94.7609 -320.603 733.369 890.336
internal_weight=396276 171584 224692 128980 76366 95218 95712 71648 54614 37282 57332 39084 40604 69124 51488 18641 42525 29769 26588 20160 23579 20168 26599 24992 20436 15505 24845 32340 18641 9291
internal_count=396276 171584 224692 128980 76366 95218 95712 71648 54614 37282 57332 39084 40604 69124 51488 18641 42525 29769 26588 20160 23579 20168 26599 24992 20436 15505 24845 32340 18641 9291
is_linear=0
shrinkage=0.05


Tree=15
num_leaves=31
num_cat=0
split_feature=3 2 1 32 6 6 22 2 2 13 2 6 2 3 11 3 32 1 3 6 3 3 6 1 2 1 6 0 2 16
split_gain=2.04553e+13 3.26847e+12 2.54185e+12 4.42027e+11 2.98562e+11 2.91476e+11 1.81134e+11 7.47182e+10 5.16661e+10 4.71209e+10 3.90276e+10 3.52014e+10 3.10457e+10 2.5586e+10 1.48857e+10 1.1342e+10 1.00823e+10 8.06131e+09 7.22e+09 6.4265e+09 6.18792e+09 6.16486e+09 6.08583e+09 6.06848e+09 6.01448e+09 5.15929e+09 4.22433e+09 2.65794e+09 2.50181e+09 2.08699e+09
threshold=34890.805000000008 51816.155000000006 18328.150000000005 25025.476664132275 43182.611104570002 61493.376673035011 12304.707625814548 29602.250000000004 39186.625000000007 66306.195733915534 47185.095000000008 57121.224959875013 21184.850000000002 8095.295000000001 32198.901000000002 27353.140000000003 9864.7503810222333 68719.000000000015 16160.365000000002 59267.007389205006 49149.985000000008 63928.005000000012 37040.644861265006 45100.005000000012 41300.730000000003 54556.045000000006 23077.222134830005 5862.6650000000009 19540.535000000003 70987.231446181089
decision_type=2 2 2 2 2 2 2 2 2 2 2 2 2 2 2 2 2 2 2 2 2 2 2 2 2 2 2 2 2 2
left_child=2 4 6 12 8 11 13 15 22 21 23 25 28 27 -9 -5 -15 -11 -8 -13 -12 -7 -2 -6 -10 -3 -14 -1 -4 -19
right_child=1 5 3 7 10 9 18 14 24 17 20 19 26 16 -16 -17 -18 29 -20 -21 -22 -23 -24 -25 -26 -27 -28 -29 -30 -31
leaf_value=-681.40171303738805 58.896695044805085 455.44887683843154 -333.88446860194108 -165.2346898428805 242.74164910835987 675.97342670875321 -446.49973542637986 -66.473450323158488 156.01576091891403 783.37775981026311 339.53709895381223 571.92420776745291 -262.83607623775669 -563.68776682265582 4.3424282297350825 -115.0456641024208 -519.56264418040632 839.4026913779212 -383.60512382826067 624.19474304359653 395.09073992931667 731.75102112202285 107.69586796343366 295.31128811393103 203.33708925936784 518.32428741894807 -222.84809481702101 -613.39502071685308 -304.70994382571809 904.01456869009587
leaf_weight=1623 10904 4683 13908 21620 11005 10769 6200 18599 11013 9276 10800 12591 13941 31546 12347 23484 21956 6205 17282 11033 9354 9174 15430 10954 17204 10757 12550 12520 15580 1565
leaf_count=1623 10904 4683 13908 21620 11005 10769 6200 18599 11013 9276 10800 12591 13941 31546 12347 23484 21956 6205 17282 11033 9354 9174 15430 10954 17204 10757 12550 12520 15580 1565
internal_value=-0.539822 407.998 -316.737 -176.543 215.067 653.214 -519.857 -98.0517 137.859 753.806 315.078 557.964 -283.177 -561.39 -38.219 -139.103 -545.58 814.847 -400.211 596.336 365.321 701.632 87.4898 268.965 184.868 499.254 -243.892 -621.199 -318.47 852.417
internal_weight=395873 172717 223156 132029 96664 76053 91127 76050 54551 36989 42113 39064 55979 67645 30946 45104 53502 17046 23482 23624 20154 19943 26334 21959 28217 15440 26491 14143 29488 7770
internal_count=395873 172717 223156 132029 96664 76053 91127 76050 54551 36989 42113 39064 55979 67645 30946 45104 53502 17046 23482 23624 20154 19943 26334 21959 28217 15440 26491 14143 29488 7770
is_linear=0
shrinkage=0.05


Tree=16
num_leaves=31
num_cat=0
split_feature=3 3 41 3 3 3 20 3 3 3 3 6 3 13 38 2 3 2 3 2 3 6 3 3 2 3 13 3 14 2
split_gain=1.84609e+13 2.95021e+12 2.29406e+12 3.99179e+11 2.82039e+11 2.50212e+11 1.63245e+11 6.42668e+10 4.31531e+10 4.26072e+10 3.86144e+10 3.35886e+10 3.17847e+10 2.31001e+10 1.34265e+10 1.03314e+10 9.1211e+09 8.91826e+09 6.91021e+09 6.6494e+09 6.16486e+09 5.8219e+09 5.81465e+09 4.92543e+09 4.64789e+09 3.12016e+09 2.86162e+09 2.82505e+09 2.39828e+09 2.30097e+09
threshold=34890.805000000008 51509.985000000008 18291.010000000002 25773.160000000007 61496.05000000001 43036.740000000013 12323.012100000002 30177.040000000005 39037.970000000008 65411.92500000001 56866.140000000007 46541.127083515006 22034.145000000004 8093.5807221630766 27831.975000000002 68054.035000000018 9911.4250000000011 32627.430000000004 59016.010000000002 13795.500000000002 48873.500000000007 40995.23943092001 54051.055000000008 20497.980000000007 36977.790000000008 63248.06500000001 45010.752895799662 23749.135000000006 5863.0640000000012 70924.210000000006
decision_type=2 2 2 2 2 2 2 2 2 2 2 2 2 2 2 2 2 2 2 2 2 2 2 2 2 2 2 2 2 2
left_child=2 5 6 12 10 8 13 14 24 25 22 26 23 28 -5 -11 -15 -9 -12 -8 -13 -10 -3 -4 -2 -6 -7 -14 -1 -17
right_child=1 4 3 7 9 11 19 17 21 15 18 20 27 16 -16 29 -18 -19 -20 -21 -22 -23 -24 -25 -26 -27 -28 -29 -30 -31
leaf_value=-647.52385122824046 55.909941551510421 416.98230997247515 -309.31466536336302 -150.24650652942861 634.00953734815198 228.34497918569784 -447.93032566229658 -51.89045799102346 142.15218866636715 731.92736657756484 537.37710417659207 310.96255435944965 -232.61776437189496 -535.49897787633392 -98.262600938332611 792.48931337119257 -493.52812571229947 8.6058295423663154 589.7717522658611 -369.75828215006646 363.51265508684867 188.89284249514719 483.51569082304906 -270.32076966382505 99.513178650283635 677.21556583003087 269.76127257194969 -195.18389830508477 -582.76573979795558 858.74743183259363
leaf_weight=1614 10891 4723 23224 24678 7738 12589 3141 13960 10851 10849 12594 14027 14090 31581 25009 7748 21936 10809 12578 20311 9269 17258 10777 12434 13927 9084 6237 7847 12522 1577
leaf_count=1614 10891 4723 23224 24678 7738 12589 3141 13960 10851 10849 12594 14027 14090 31581 25009 7748 21936 10809 12578 20311 9269 17258 10777 12434 13927 9084 6237 7847 12522 1577
internal_value=-0.51283 387.598 -300.9 -167.742 616.2 200.798 -493.905 -91.2835 128.427 716.102 525.328 291.734 -266.584 -533.311 -124.081 765.1 -518.296 -25.4903 563.558 -380.228 331.871 170.849 463.242 -295.717 80.3786 657.341 242.066 -219.227 -590.16 803.695
internal_weight=395873 172717 223156 132051 77668 95049 91105 74456 52927 36996 40672 42122 57595 67653 49687 20174 53517 24769 25172 23452 23296 28109 15500 35658 24818 16822 18826 21937 14136 9325
internal_count=395873 172717 223156 132051 77668 95049 91105 74456 52927 36996 40672 42122 57595 67653 49687 20174 53517 24769 25172 23452 23296 28109 15500 35658 24818 16822 18826 21937 14136 9325
is_linear=0
shrinkage=0.05


Tree=17
num_leaves=31
num_cat=0
split_feature=6 3 6 1 50 6 3 1 1 1 3 6 3 6 3 3 53 3 1 3 6 3 14 6 3 3 3 41 3 1
split_gain=1.6662e+13 2.40326e+12 2.28929e+12 3.31896e+11 2.5858e+11 2.2848e+11 2.08435e+11 6.85666e+10 4.47548e+10 4.41057e+10 3.47276e+10 2.52996e+10 2.25312e+10 2.08659e+10 8.44104e+09 7.97887e+09 7.49296e+09 6.46322e+09 6.23457e+09 6.08203e+09 5.79767e+09 5.42917e+09 4.17885e+09 4.11756e+09 4.05766e+09 3.79942e+09 3.61384e+09 2.71177e+09 2.64495e+09 1.97239e+09
threshold=36525.782255925005 54051.055000000008 19434.265873710003 27015.290000000005 13801.415000000003 45002.329558145007 63248.06500000001 31459.990000000002 41080.255000000012 23382.265000000003 59016.010000000002 9446.5559037500007 67743.97500000002 49149.391239320008 28999.755000000005 17340.165000000005 7763.5150000000003 34198.290000000001 21073.435000000001 56866.140000000007 38419.040481550008 11378.800000000001 24631.924000000003 42616.652984515007 65411.92500000001 61179.855000000003 47475.515000000007 70158.795000000013 51015.42500000001 5880.9300000000012
decision_type=2 2 2 2 2 2 2 2 2 2 2 2 2 2 2 2 2 2 2 2 2 2 2 2 2 2 2 2 2 2
left_child=2 5 4 9 11 8 10 14 20 18 19 16 24 26 -5 -6 29 -9 -4 -3 -2 -13 -11 -10 -8 -12 -7 -14 -15 -1
right_child=1 6 3 7 15 13 12 17 23 22 25 21 27 28 -16 -17 -18 -19 -20 -21 -22 -23 -24 -25 -26 -27 -28 -29 -30 -31
leaf_value=-615.19194300922175 81.80864619611495 459.33988122854225 -278.24335389673024 -118.20582281061482 -356.56620873246857 268.6531818693033 643.35474460590058 -14.481512898067786 173.5344948630617 -199.42355592492083 556.33008022609181 -486.11940290178575 741.65476594080064 344.18632798371948 -73.708334293698485 -307.12683376596158 -515.77264051924703 38.514307506096799 -235.37973121155389 510.50830554232175 127.63005144976508 -443.65553861788624 -155.9983562248872 211.1774076341471 690.37604099244879 599.71390820584145 309.85686361996051 796.24092735703243 390.23578854766475 -555.97266269241345
leaf_weight=1614 12423 10777 15531 18593 17228 12521 9084 10769 12543 7886 10969 23520 7669 6221 24972 15506 23640 12352 18695 12594 15537 11070 18623 17263 9270 9347 9255 3235 6252 10914
leaf_count=1614 12423 10777 15531 18593 17228 12521 9084 10769 12543 7886 10969 23520 7669 6221 24972 15506 23640 12352 18695 12594 15537 11070 18623 17263 9270 9347 9255 3235 6252 10914
internal_value=-0.48719 383.3 -274.658 -132.775 -449.346 213.378 597.644 -55.7638 152.711 -217.332 528.477 -503.102 700.923 315.702 -92.6993 -333.147 -532.34 13.8306 -254.83 486.913 107.271 -472.529 -168.917 195.336 667.104 576.29 286.165 757.849 367.268 -563.602
internal_weight=395873 164960 230913 127421 103492 92015 72945 66686 57766 60735 43687 70758 29258 34249 43565 32734 36168 23121 34226 23371 27960 34590 26509 29806 18354 20316 21776 10904 12473 12528
internal_count=395873 164960 230913 127421 103492 92015 72945 66686 57766 60735 43687 70758 29258 34249 43565 32734 36168 23121 34226 23371 27960 34590 26509 29806 18354 20316 21776 10904 12473 12528
is_linear=0
shrinkage=0.05


Tree=18
num_leaves=31
num_cat=0
split_feature=1 3 47 44 1 3 32 6 1 2 6 1 19 3 1 6 3 13 53 3 13 1 6 2 2 11 11 2 2 6
split_gain=1.50383e+13 2.40152e+12 1.86988e+12 3.25522e+11 2.29799e+11 2.0369e+11 1.3303e+11 5.30442e+10 3.51278e+10 3.49106e+10 3.14319e+10 2.7464e+10 2.6028e+10 1.91228e+10 9.95932e+09 8.25319e+09 5.85451e+09 5.66757e+09 5.56467e+09 5.19527e+09 4.97653e+09 4.93749e+09 4.67896e+09 4.50935e+09 3.9522e+09 3.91427e+09 3.7904e+09 2.24362e+09 2.22729e+09 1.54171e+09
threshold=34960.635000000009 51509.985000000008 18291.010000000002 25769.995000000006 61563.750000000007 43036.740000000013 12265.878554226174 29799.732782290004 39328.330000000009 66615.915000000023 56860.524073535009 46620.770000000011 22027.024467928863 9064.3100000000031 32780.17500000001 27481.869191405003 64198.680000000008 59261.392306938425 16154.915000000003 10609.610000000002 48574.294021292684 69272.750000000015 54054.581889870009 37430.180000000008 20311.395000000004 6688.9270000000015 41590.379000000008 44929.715000000004 23717.190000000006 30915.762940700002
decision_type=2 2 2 2 2 2 2 2 2 2 2 2 2 2 2 2 2 2 2 2 2 2 2 2 2 2 2 2 2 2
left_child=2 5 6 12 10 8 13 15 23 16 22 27 24 25 29 -5 -6 -12 -8 -15 -13 -11 -3 -2 -4 -1 -10 -7 -14 -9
right_child=1 4 3 7 9 11 18 14 26 21 17 20 28 19 -16 -17 -18 -19 -20 -21 -22 -23 -24 -25 -26 -27 -28 -29 -30 -31
leaf_value=-558.27321707284318 55.582228314087729 376.73118411702615 -280.39098088429796 -138.75982836205458 582.37322139865307 206.3658720702351 -383.7722369159801 -62.45439379898486 136.49505631804124 680.29914828565188 487.65984118561056 278.13307998203754 -209.65647485240621 -474.65193084390279 7.9110708556342075 -95.938806360143985 635.00832150128599 535.41569239526132 -328.58529863281251 -438.76317842118681 324.4954073507883 737.82349857006682 436.36326311865042 97.077985171299687 -246.30660937611506 -507.41513799091808 174.31766526797583 243.02287592176981 -176.41149650235252 -31.786256684079316
leaf_weight=4724 13994 4744 21637 21568 12176 12617 6213 12461 12524 9158 14174 12450 14084 28226 10860 23527 9332 11061 17250 15689 10817 6294 10729 12303 14013 18999 14061 6238 7844 6106
leaf_count=4724 13994 4744 21637 21568 12176 12617 6213 12461 12524 9158 14174 12450 14084 28226 10860 23527 9332 11061 17250 15689 10817 6294 10729 12303 14013 18999 14061 6238 7844 6106
internal_value=-0.46283 349.909 -271.516 -151.334 556.139 181.311 -445.785 -82.3427 115.97 646.399 474.189 263.343 -240.628 -481.371 -30.1226 -116.419 605.211 508.592 -343.199 -461.83 299.687 703.73 418.08 74.9959 -266.993 -517.543 156.5 218.493 -197.764 -52.3688
internal_weight=395873 172672 223201 132100 77668 95004 91101 74522 52882 36960 40708 42122 57578 67638 29427 45095 21508 25235 23463 43915 23267 15452 15473 26297 35650 23723 26585 18855 21928 18567
internal_count=395873 172672 223201 132100 77668 95004 91101 74522 52882 36960 40708 42122 57578 67638 29427 45095 21508 25235 23463 43915 23267 15452 15473 26297 35650 23723 26585 18855 21928 18567
is_linear=0
shrinkage=0.05


Tree=19
num_leaves=31
num_cat=0
split_feature=1 32 3 3 31 3 1 2 2 1 6 2 3 2 6 50 6 1 2 3 3 3 3 11 3 13 2 3 3 32
split_gain=1.35732e+13 1.95543e+12 1.86727e+12 2.81421e+11 1.9888e+11 1.81613e+11 1.71701e+11 6.06516e+10 3.21068e+10 3.12912e+10 2.97606e+10 2.0937e+10 2.08753e+10 1.79904e+10 7.65161e+09 7.02836e+09 6.56768e+09 6.34166e+09 5.81972e+09 4.74564e+09 4.72625e+09 3.80664e+09 3.73682e+09 3.46774e+09 3.31401e+09 3.06679e+09 3.00159e+09 2.90281e+09 2.40928e+09 1.85943e+09
threshold=36593.895000000011 52281.76589347548 19336.415000000005 26800.165000000005 13858.204764372727 62929.92500000001 44183.765000000007 30855.035000000003 22600.160000000003 40351.705000000009 58094.005451480007 67315.200000000012 9589.9950000000008 48180.560000000005 29001.837387820004 8090.1350000000011 33958.430246560005 24313.465000000004 17132.905000000002 55886.135000000009 60755.380000000012 11476.900000000001 42449.560000000005 64889.69000000001 38176.595000000008 46271.818738741036 50462.645000000011 70149.99500000001 20831.110000000004 6241.6558680867556
decision_type=2 2 2 2 2 2 2 2 2 2 2 2 2 2 2 2 2 2 2 2 2 2 2 2 2 2 2 2 2 2
left_child=2 6 4 8 12 10 9 14 28 24 19 23 15 25 -5 29 -9 -10 -6 -3 -12 -14 -11 -7 -2 -8 -15 -13 -4 -1
right_child=1 5 3 7 18 11 13 16 17 22 20 27 21 26 -16 -17 -18 -19 -20 -21 -22 -23 -24 -25 -26 -27 -28 -29 -30 -31
leaf_value=-540.52790153999172 71.531657881308405 394.76499545690552 -253.89759409825598 -109.33713489485713 -323.91364646491934 572.91734552381331 219.15818904392495 -19.903718270541475 -191.63611949425422 149.75538862066443 487.48061239738581 664.4759619588981 -435.11709998741657 297.22272630002141 -68.172939343546673 -462.55180688168969 32.049149041565059 -146.38970689547295 -280.7159146143876 444.67438131211929 532.45327021588002 -397.18982991673693 185.2367682595457 616.28827707459891 108.42397100376751 259.08190450798139 342.03748290035145 719.48704615384622 -224.28992129635503 -496.88189170543694
leaf_weight=3139 10809 7704 15535 21783 15761 9106 7823 10792 14204 14121 12547 9148 21854 9346 23433 25319 13942 17028 15430 12476 10932 9488 15639 9332 13935 12490 6225 3250 12320 10962
leaf_count=3139 10809 7704 15535 21783 15761 9106 7823 10792 14204 14121 12547 9148 21854 9346 23433 25319 13942 17028 15430 12476 10932 9488 15639 9332 13935 12490 6225 3250 12320 10962
internal_value=-0.439688 346.091 -247.797 -121.434 -407.728 535.759 189.772 -53.5691 -201.775 133.856 470.149 628.653 -454.092 274.703 -88.004 -478.308 9.38095 -166.967 -302.544 425.621 508.42 -423.636 168.401 594.869 92.3082 243.706 315.139 678.897 -240.802 -506.598
internal_weight=395873 164883 230990 129037 101953 74495 90388 69950 59087 54504 43659 30836 70762 35884 45216 39420 24734 31232 31191 20180 23479 31342 29760 18438 24744 20313 15571 12398 27855 14101
internal_count=395873 164883 230990 129037 101953 74495 90388 69950 59087 54504 43659 30836 70762 35884 45216 39420 24734 31232 31191 20180 23479 31342 29760 18438 24744 20313 15571 12398 27855 14101
is_linear=0
shrinkage=0.05


Tree=20
num_leaves=31
num_cat=0
split_feature=2 2 17 3 2 3 53 6 3 2 1 31 3 38 2 13 32 6 44 1 2 1 3 3 2 1 3 3 47 44
split_gain=1.2231e+13 1.95567e+12 1.51696e+12 2.54835e+11 1.8709e+11 1.6743e+11 1.17652e+11 3.92215e+10 3.0932e+10 2.85628e+10 2.55896e+10 2.44975e+10 2.02684e+10 1.56218e+10 7.40877e+09 5.78126e+09 5.15697e+09 5.13376e+09 5.06634e+09 4.61118e+09 3.88881e+09 3.77532e+09 3.65928e+09 3.58564e+09 2.99525e+09 2.91836e+09 2.90984e+09 2.71241e+09 2.42377e+09 1.45821e+09
threshold=34838.245000000003 51461.255000000012 18685.799750000002 26014.095000000005 61434.705000000009 43184.705000000009 12327.185000000003 30174.769796295001 39252.620000000003 66258.550000000003 56951.100000000006 22180.269175824946 47049.695000000007 8737.5750000000025 28254.600000000002 32695.597960213981 10580.68195954582 16508.367088370007 68648.035000000018 59095.770000000011 54382.870000000003 63994.285000000011 37266.365000000013 41759.010000000002 49075.320000000007 20529.915000000005 23934.945000000003 45497.970000000008 6306.1100000000015 70995.625000000015
decision_type=2 2 2 2 2 2 2 2 2 2 2 2 2 2 2 2 2 2 2 2 2 2 2 2 2 2 2 2 2 2
left_child=2 5 6 11 10 8 13 14 22 21 20 25 27 28 -5 -9 -15 -8 -11 -12 -3 -6 -2 -10 -14 -4 -13 -7 -1 -20
right_child=1 4 3 7 9 12 17 15 23 18 19 26 24 16 -16 -17 -18 -19 29 -21 -22 -23 -24 -25 -26 -27 -28 -29 -30 -31
leaf_value=-513.30291731597447 48.096374539749782 346.94516881608462 -250.70359705060582 -115.93269087107905 522.54084092811308 190.81065006870196 -340.93867408962609 -41.771421665610923 125.06412875798236 606.00321856287428 437.72596605848139 -187.50333390853731 260.76668738947836 -430.65303250759303 -75.687354229394813 7.023186683513396 -395.82257629285624 -292.03059367599127 649.81546943408466 480.62360977852404 397.96153179423783 566.16513715372082 85.327945272372133 160.90516633425159 300.32515432098768 -220.23983585295943 -152.16797220127143 228.29754646277021 -465.07870242299828 703.99594855305475
leaf_weight=3126 12629 6242 21601 26273 10753 12486 7805 13875 13937 9352 12551 15652 12441 32925 20249 10792 15692 17167 6167 12507 9302 9205 13823 13976 7776 12360 9281 7865 15650 1555
leaf_count=3126 12629 6242 21601 26273 10753 12486 7805 13875 13937 9352 12551 15652 12441 32925 20249 10792 15692 17167 6167 12507 9302 9205 13823 13976 7776 12360 9281 7865 15650 1555
internal_value=-0.0155466 315.87 -245.068 -135.044 502.002 163.655 -400.02 -71.3913 106.295 583.277 427.874 -211.986 240.523 -434.371 -98.4156 -20.4234 -419.411 -307.317 630.752 459.137 377.475 542.661 67.5524 143.01 275.982 -239.616 -174.35 205.298 -473.108 660.726
internal_weight=395015 172567 222448 130083 77634 94933 92365 71189 54365 37032 40602 58894 40568 67393 46522 24667 48617 24972 17074 25058 15544 19958 26452 27913 20217 33961 24933 20351 18776 7722
internal_count=395015 172567 222448 130083 77634 94933 92365 71189 54365 37032 40602 58894 40568 67393 46522 24667 48617 24972 17074 25058 15544 19958 26452 27913 20217 33961 24933 20351 18776 7722
is_linear=0
shrinkage=0.05


Tree=21
num_leaves=31
num_cat=0
split_feature=3 3 3 3 44 16 13 3 3 2 3 3 1 3 32 3 44 20 1 3 3 2 3 3 38 1 3 22 19 3
split_gain=1.10393e+13 1.59186e+12 1.5164e+12 2.04544e+11 1.89547e+11 1.52151e+11 1.38764e+11 4.37032e+10 2.79163e+10 2.74826e+10 2.29429e+10 1.70637e+10 1.55593e+10 1.52384e+10 6.5912e+09 5.79536e+09 4.81944e+09 3.91067e+09 3.80175e+09 3.57111e+09 3.4944e+09 3.21954e+09 3.09361e+09 2.90642e+09 2.67989e+09 2.65973e+09 2.2845e+09 2.25734e+09 1.90359e+09 1.26629e+09
threshold=36527.81500000001 54051.055000000008 19782.575000000004 27102.155000000002 13803.275000000003 44507.567235371236 63229.720585086492 31742.785000000003 40588.80000000001 23466.385000000006 58740.55000000001 9391.1750000000011 48952.05000000001 67743.97500000002 17248.536701143708 29213.445000000003 7499.6500000000005 11309.661500000002 21740.460000000003 34445.06500000001 56602.915000000008 38357.630000000005 60961.015000000007 42449.560000000005 65402.970000000008 47120.185000000005 51015.42500000001 25208.59490411992 70148.862903161949 5856.1850000000004
decision_type=2 2 2 2 2 2 2 2 2 2 2 2 2 2 2 2 2 2 2 2 2 2 2 2 2 2 2 2 2 2
left_child=2 5 4 9 11 8 10 15 21 18 20 16 25 24 -6 -5 29 -13 -4 -9 -3 -2 -12 -10 -8 -7 -14 -11 -15 -1
right_child=1 6 3 7 14 12 13 19 23 27 22 17 26 28 -16 -17 -18 -19 -20 -21 -22 -23 -24 -25 -26 -27 -28 -29 -30 -31
leaf_value=-504.0258597501541 66.502641527047089 370.70283482625018 -217.93154829622176 -92.202738898980769 -290.70811641513404 210.57550872206971 524.15424639511616 -6.1689114544457926 137.27013147330391 -157.0334363167988 447.69568483737976 -397.88926569558987 277.25009508834108 604.43828176002091 -247.74352994643993 -55.609671629230867 -422.28566576846038 -363.41009760380473 -183.45019992180835 34.46980752039974 411.22999439955197 101.5508227708998 485.32935142237829 168.97834317312083 562.26085730038278 245.46106674010835 317.82422868956746 -124.90774269407734 650.33179407176294 -455.52975424332902
leaf_weight=1574 12483 9259 18514 20248 17236 10962 9164 10718 12455 7747 10915 23463 7739 7659 18516 23237 23493 12662 14068 10907 12499 13792 10928 17217 9292 10893 6288 18588 3205 9294
leaf_count=1574 12483 9259 18514 20248 17236 10962 9164 10718 12455 7747 10915 23463 7739 7659 18516 23237 23493 12662 14068 10907 12499 13792 10928 17217 9292 10893 6288 18588 3205 9294
internal_value=-0.0147686 312.474 -223.595 -104.841 -362.232 173.975 486.885 -43.761 122.433 -172.342 430.325 -409.797 254.341 570.995 -268.457 -72.6486 -435.022 -385.804 -203.043 14.328 393.984 84.8998 466.524 155.669 543.34 227.963 295.439 -134.358 617.977 -462.553
internal_weight=395015 164750 230265 124027 106238 91829 72921 65110 55947 58917 43601 70486 35882 29320 35752 43485 34361 36125 32582 21625 21758 26275 21843 29672 18456 21855 14027 26335 10864 10868
internal_count=395015 164750 230265 124027 106238 91829 72921 65110 55947 58917 43601 70486 35882 29320 35752 43485 34361 36125 32582 21625 21758 26275 21843 29672 18456 21855 14027 26335 10864 10868
is_linear=0
shrinkage=0.05


Tree=22
num_leaves=31
num_cat=0
split_feature=1 11 3 2 1 3 53 1 3 1 1 3 3 3 2 3 3 1 1 2 13 31 11 1 13 2 1 1 1 1
split_gain=9.96323e+12 1.55961e+12 1.26387e+12 1.94938e+11 1.42755e+11 1.40815e+11 1.2065e+11 3.38663e+10 2.69013e+10 2.12831e+10 1.98361e+10 1.97451e+10 1.57879e+10 1.3988e+10 6.60252e+09 4.15868e+09 4.05518e+09 3.85672e+09 3.84713e+09 3.84526e+09 3.5711e+09 3.21136e+09 2.83636e+09 2.83035e+09 2.75047e+09 2.64329e+09 2.54735e+09 2.44978e+09 2.03205e+09 1.19487e+09
threshold=35359.335000000006 51868.373000000007 19135.495000000006 26252.620000000003 61872.555000000008 43589.385000000009 13169.635000000002 30509.670000000002 39750.005000000012 67070.555000000008 22380.280000000002 57611.740000000013 47475.515000000007 9287.1650000000027 28433.755000000005 16874.380000000001 64490.010000000002 7229.9550000000008 54974.080000000009 33109.285000000011 37735.08070596672 11082.802894919221 24271.062000000002 69608.505000000019 60011.18985941221 49936.810000000005 41965.285000000011 46023.355000000003 20710.660000000003 13822.380000000003
decision_type=2 2 2 2 2 2 2 2 2 2 2 2 2 2 2 2 2 2 2 2 2 2 2 2 2 2 2 2 2 2
left_child=2 5 6 10 11 8 13 14 20 16 28 18 27 17 -5 29 -6 -1 -3 -9 -2 -15 -12 -11 -13 -14 -10 -7 -4 -8
right_child=1 4 3 7 9 12 15 19 26 23 22 24 25 21 -16 -17 -18 -19 -20 -21 -22 -23 -24 -25 -26 -27 -28 -29 -30 -31
leaf_value=-442.54463380044047 48.907283659708241 322.37051183598123 -221.7794180810935 -100.77084337590951 479.42249915639371 178.6093888136312 -327.18985384827403 -28.638895249122239 119.12943092008302 561.5685100098458 -165.78882354607367 408.83671182947836 245.01095831315089 -380.5638987011024 -63.714404961013486 -248.7340443746879 523.14127969282083 -404.08283448063474 370.49227652034591 13.459388920101851 84.67401678368546 -349.5832038088347 -132.47521625174124 609.17363981442429 444.53849522815585 284.87457717651756 149.54759180070687 213.34618037240216 -195.56022374514643 -281.8664540158012
leaf_weight=9256 14064 6256 18373 24764 12178 10926 1644 10823 12351 9141 15618 12446 12387 25014 23359 14017 9397 22032 12357 10874 13853 12567 10813 4742 9522 6260 15546 9479 12362 12594
leaf_count=9256 14064 6256 18373 24764 12178 10926 1644 10823 12351 9141 15618 12446 12387 25014 23359 14017 9397 22032 12357 10874 13853 12567 10813 4742 9522 6260 15546 9479 12362 12594
internal_value=-0.0140306 287.538 -219.3 -115.457 456.247 152.311 -355.07 -59.4013 101.355 529.538 -183.921 392.208 225.137 -390.765 -82.7836 -268.067 498.464 -415.461 354.318 -7.54028 66.6555 -370.204 -152.16 577.829 424.312 258.394 136.08 194.746 -211.234 -287.1
internal_weight=395015 170905 224110 126986 76039 94866 97124 69820 55814 35458 57166 40581 39052 68869 48123 28255 21575 31288 18613 21697 27917 37581 26431 13883 21968 18647 27897 20405 30735 14238
internal_count=395015 170905 224110 126986 76039 94866 97124 69820 55814 35458 57166 40581 39052 68869 48123 28255 21575 31288 18613 21697 27917 37581 26431 13883 21968 18647 27897 20405 30735 14238
is_linear=0
shrinkage=0.05


Tree=23
num_leaves=31
num_cat=0
split_feature=6 11 6 6 20 41 6 1 3 6 3 3 11 1 31 3 3 3 3 3 2 6 3 2 3 3 1 1 47 29
split_gain=8.99285e+12 1.29716e+12 1.23523e+12 1.86474e+11 1.30868e+11 1.23927e+11 1.13343e+11 4.01625e+10 2.27677e+10 2.109e+10 1.87759e+10 1.40729e+10 1.26916e+10 1.24286e+10 5.04443e+09 4.96882e+09 4.31708e+09 3.94933e+09 3.35063e+09 3.1405e+09 3.02225e+09 2.37037e+09 2.35644e+09 2.14175e+09 2.13565e+09 2.00461e+09 1.88397e+09 1.85073e+09 1.66753e+09 1.34013e+09
threshold=36525.782255925005 54061.47800000001 19337.409335040003 26801.310441655001 13794.821700000002 44521.130000000012 63241.900393300006 30979.270000000004 40996.750000000007 22962.68416108 59016.010000000002 9654.0800000000036 48877.263000000014 67800.305000000008 8129.0284019932633 28999.755000000005 33954.220000000008 16961.170000000002 56602.915000000008 38644.595000000008 24607.860000000004 11613.004597375 20831.110000000004 65320.380000000012 46820.005000000012 61179.855000000003 42662.625000000007 51089.610000000008 70990.505000000019 5870.8032499999999
decision_type=2 2 2 2 2 2 2 2 2 2 2 2 2 2 2 2 2 2 2 2 2 2 2 2 2 2 2 2 2 2
left_child=2 5 4 9 11 8 10 15 19 22 18 14 24 23 29 -5 -9 -6 -3 -2 -11 -13 -4 -8 -7 -12 -10 -14 -15 -1
right_child=1 6 3 7 17 12 13 16 26 20 25 21 27 28 -16 -17 -18 -19 -20 -21 -22 -23 -24 -25 -26 -27 -28 -29 -30 -31
leaf_value=-456.56840372539847 61.8447974329315 334.45506775633743 -206.70588475688137 -88.79080785126078 -266.24200062097947 187.70155917021984 473.36964846746253 -16.023939942554318 127.80718075173375 -151.15413976335 408.96856540280965 -352.1510798008992 250.4124815218812 550.01437971952544 -376.23027926870179 -55.563348177328322 26.185335950157647 -230.48535388147585 373.1706071046724 95.408974173478995 -118.1619694254789 -320.1335801449091 -179.08701535901466 507.448126001925 219.29389858088982 440.47996931501194 153.85708574556338 286.93288490721716 605.87418321588734 -407.7399401134162
leaf_weight=1585 14056 9263 15413 21762 14185 9407 9126 10739 12509 12603 10900 21798 7831 9270 26829 23295 13897 16950 14088 13823 15452 7867 15479 9318 12402 9399 15592 6228 1561 12388
leaf_count=1585 14056 9263 15413 21762 14185 9407 9126 10739 12509 12603 10900 21798 7831 9270 26829 23295 13897 16950 14088 13823 15452 7867 15479 9318 12402 9399 15592 6228 1561 12388
internal_value=-0.0133286 281.995 -201.833 -98.9092 -332.146 156.99 439.436 -43.5452 110.5 -164.366 388.387 -369.865 229.547 515.552 -388.918 -71.6118 7.78603 -246.776 357.813 78.4866 -132.983 -343.66 -192.867 490.586 205.667 423.559 142.261 266.591 558.065 -413.279
internal_weight=395015 164773 230242 128640 101602 91848 72925 69693 55980 58947 43650 70467 35868 29275 40802 45057 24636 31135 23351 27879 28055 29665 30892 18444 21809 20299 28101 14059 10831 13973
internal_count=395015 164773 230242 128640 101602 91848 72925 69693 55980 58947 43650 70467 35868 29275 40802 45057 24636 31135 23351 27879 28055 29665 30892 18444 21809 20299 28101 14059 10831 13973
is_linear=0
shrinkage=0.05


Tree=24
num_leaves=31
num_cat=0
split_feature=3 6 3 13 2 3 2 6 44 3 2 13 16 32 32 3 16 16 3 13 2 2 2 3 3 2 14 31 3 0
split_gain=8.11676e+12 1.29794e+12 1.00712e+12 1.74694e+11 1.24563e+11 1.11252e+11 7.17788e+10 2.50733e+10 2.11011e+10 1.91307e+10 1.86706e+10 1.55071e+10 1.47354e+10 9.99477e+09 4.36248e+09 4.18069e+09 4.16505e+09 3.88501e+09 3.30801e+09 3.13833e+09 2.75993e+09 2.50967e+09 2.4654e+09 2.34735e+09 2.07888e+09 2.00116e+09 1.89682e+09 1.38406e+09 1.19313e+09 1.0626e+09
threshold=34890.805000000008 51505.497260255004 18297.005000000005 26100.236157806026 61120.005000000012 43036.740000000013 11830.595000000001 30044.704523640004 65947.105000000025 39037.970000000008 22339.755000000001 57121.214397811935 46550.004665494118 8408.2475172559225 15410.77677269358 32701.905000000002 68626.715738754268 28278.364312103542 9787.0150000000012 54878.357670853809 48507.790000000008 20176.050000000003 40924.35500000001 63248.06500000001 36804.17500000001 59210.81500000001 24269.248000000003 6367.1655556227834 45013.570000000014 70987.465000000011
decision_type=2 2 2 2 2 2 2 2 2 2 2 2 2 2 2 2 2 2 2 2 2 2 2 2 2 2 2 2 2 2
left_child=2 5 6 10 11 9 13 17 23 24 21 19 28 27 -8 -9 -10 -5 -15 -3 -14 -4 -11 -6 -2 -13 -12 -1 -7 -18
right_child=1 4 3 7 8 12 14 15 16 22 26 25 20 18 -16 -17 29 -19 -20 -21 -22 -23 -24 -25 -26 -27 -28 -29 -30 -31
leaf_value=-419.97276309789606 34.595164297896297 286.86403122104264 -206.93408300361034 -93.23940078793521 418.58170918432336 152.02846768833962 -292.00169002794308 -34.964924114623329 490.91355341586433 94.657082139155705 -149.52028547774461 360.62223484179827 204.42851375179828 -355.53664040256251 -243.69950533002338 5.6565286769249603 529.52996269867015 -63.061214122353391 -329.65186612036746 329.88605556156091 238.9236926876099 -180.81642238849767 125.23204746053158 452.94211670428206 64.361784911717493 391.10200063680747 -120.94005997488085 -382.71284547244841 178.75339179606394 575.6045859872612
leaf_weight=3118 9409 7824 19986 24789 9353 12543 6218 15479 10905 10738 15604 12569 12512 28449 18832 10721 6166 18717 21802 9251 10807 17040 17081 10608 15575 9422 9245 12421 6261 1570
leaf_count=3118 9409 7824 19986 24789 9353 12543 6218 15479 10905 10738 15604 12569 12512 28449 18832 10721 6166 18717 21802 9251 10807 17040 17081 10608 15575 9422 9245 12421 6261 1570
internal_value=-0.0126636 257.281 -199.667 -111.265 408.866 133.255 -327.718 -56.9851 472.566 84.9091 -172.414 345.923 193.859 -355.143 -255.689 -18.3427 510.82 -80.2562 -344.306 310.173 220.415 -194.914 113.43 436.842 53.1516 373.681 -138.887 -390.189 160.927 538.881
internal_weight=395015 172594 222421 131581 77668 94926 90840 69706 38602 52803 61875 39066 42123 65790 25050 26200 18641 43506 50251 17075 23319 37026 27819 19961 24984 21991 24849 15539 18804 7736
internal_count=395015 172594 222421 131581 77668 94926 90840 69706 38602 52803 61875 39066 42123 65790 25050 26200 18641 43506 50251 17075 23319 37026 27819 19961 24984 21991 24849 15539 18804 7736
is_linear=0
shrinkage=0.05


Tree=25
num_leaves=31
num_cat=0
split_feature=13 32 1 1 6 13 1 3 13 41 3 3 3 53 3 16 53 1 3 2 3 2 2 6 2 3 16 32 44 50
split_gain=7.35736e+12 1.17551e+12 9.1139e+11 1.47487e+11 1.15591e+11 9.82538e+10 7.69121e+10 2.15725e+10 2.14686e+10 1.65349e+10 1.63807e+10 1.36068e+10 1.16085e+10 9.17441e+09 4.87835e+09 4.31425e+09 3.19472e+09 3.09396e+09 3.00356e+09 2.5032e+09 2.33481e+09 2.28375e+09 2.27595e+09 2.1266e+09 2.04102e+09 1.92068e+09 1.87604e+09 1.3879e+09 1.15836e+09 8.69096e+08
threshold=34895.185598539327 52281.76589347548 18950.490000000002 26283.165000000005 43589.253500000006 62921.030970919201 11851.540000000003 30351.040000000005 39747.814877402408 22357.315000000006 57862.035000000011 47710.005000000012 67743.97500000002 8093.3950000000013 16509.135000000006 28466.063809981893 9908.840000000002 37575.640000000007 60431.085000000006 33109.285000000011 64898.460000000006 55239.500000000007 49936.810000000005 45942.810076375004 23900.380000000001 42115.865000000013 20681.529101291846 70748.57398232726 5861.1550000000016 13801.415000000003
decision_type=2 2 2 2 2 2 2 2 2 2 2 2 2 2 2 2 2 2 2 2 2 2 2 2 2 2 2 2 2 2
left_child=2 4 6 9 8 10 13 15 17 26 21 23 20 28 29 -5 -15 -2 -12 -9 -7 -3 -13 -6 -11 -10 -4 -14 -1 -8
right_child=1 5 3 7 11 12 14 19 25 24 18 22 27 16 -16 -17 -18 -19 -20 -21 -22 -23 -24 -25 -26 -27 -28 -29 -30 -31
leaf_value=-412.66827001234378 38.740599047029775 285.14715012678403 -192.06848897076588 -86.355349915447817 153.249167868157 421.31879155050405 -283.74499590337626 -26.144470443067718 103.5532659489421 -143.48615640683539 354.62879043940126 212.23428837171224 496.4538063403063 -337.67966935890968 -224.15620849272128 -55.849479144558565 -312.2874904620187 71.134543279579916 389.23647932857818 8.3612381373039604 455.41387663173384 322.43682126243186 247.71341706815917 184.39838905878389 -115.65909594142684 129.70305526884175 -167.70535923908062 547.31632653061229 -367.97843737514984 -253.25065629344877
leaf_weight=1640 14171 6122 21668 24733 10907 9326 4627 12409 14021 14147 12426 10819 9274 31696 18822 21810 20334 15361 12654 9118 10878 12468 7764 11011 12335 14067 12437 1568 12515 4720
leaf_count=1640 14171 6122 21668 24733 10907 9326 4627 12409 14021 14147 12426 10819 9274 31696 18822 21810 20334 15361 12654 9118 10878 12468 7764 11011 12335 14067 12437 1568 12515 4720
internal_value=-0.216786 244.64 -189.984 -103.423 130.853 394.07 -308.015 -52.9175 85.3548 -160.167 345.725 195.583 462.073 -337.466 -238.819 -72.0603 -327.756 55.5902 372.09 -11.5292 439.676 310.157 227.058 168.898 -130.525 116.65 -183.184 503.81 -373.156 -268.346
internal_weight=395848 172837 223011 128657 98121 74716 94354 68070 57620 60587 43670 40501 31046 66185 28169 46543 52030 29532 25080 21527 20204 18590 18583 21918 26482 28088 34105 10842 14155 9347
internal_count=395848 172837 223011 128657 98121 74716 94354 68070 57620 60587 43670 40501 31046 66185 28169 46543 52030 29532 25080 21527 20204 18590 18583 21918 26482 28088 34105 10842 14155 9347
is_linear=0
shrinkage=0.05


Tree=26
num_leaves=31
num_cat=0
split_feature=11 31 3 3 2 3 32 3 1 1 16 6 1 3 1 3 13 3 16 1 2 2 6 2 1 1 14 11 6 31
split_gain=6.64025e+12 1.01892e+12 8.57928e+11 1.30418e+11 9.58026e+10 8.88482e+10 8.59025e+10 2.32191e+10 1.76496e+10 1.48905e+10 1.47668e+10 1.10442e+10 1.04888e+10 9.67456e+09 4.34554e+09 3.29223e+09 2.71217e+09 2.54854e+09 2.39688e+09 2.1687e+09 2.11012e+09 2.08589e+09 1.99104e+09 1.96767e+09 1.85968e+09 1.71527e+09 1.69099e+09 1.57347e+09 1.44467e+09 6.46183e+08
threshold=35641.873 53169.90240991582 19185.775000000005 26561.350000000002 43695.955000000009 62929.92500000001 13105.800101433315 30910.600000000002 39804.395000000011 57933.360000000008 22634.817448623642 47954.158700175009 67438.355000000025 9192.1450000000023 29036.030000000002 16766.455000000005 60432.204748841927 11038.585000000001 7034.6408660377465 24313.465000000004 37855.005000000012 55239.500000000007 42116.302763935011 33579.465000000004 46023.355000000003 64572.30000000001 50551.236500000006 70142.664000000019 20829.942171395003 17942.563058528365
decision_type=2 2 2 2 2 2 2 2 2 2 2 2 2 2 2 2 2 2 2 2 2 2 2 2 2 2 2 2 2 2
left_child=2 4 6 10 8 9 13 14 20 21 28 24 25 18 -5 -8 -11 -15 -1 -12 -2 -3 -10 -9 -6 -7 -13 -14 -4 -17
right_child=1 5 3 7 11 12 15 23 22 16 19 26 27 17 -16 29 -18 -19 -20 -21 -22 -23 -24 -25 -26 -27 -28 -29 -30 -31
leaf_value=-364.64522165034509 42.58451801371428 270.78750405580791 -178.68985480151932 -77.769442950748669 147.41986080082287 397.26041450103952 -238.5786687749339 -15.993507896460395 98.432428915407229 336.93796797196296 -133.54225968874522 206.0463637984175 464.16061449465178 -311.15836986637674 -47.688103474037476 -213.65059021799016 369.81640623461135 -284.04135220836349 -331.99904956401474 -105.7850466718848 70.918831273725871 306.33006971673205 124.39637061216354 15.46583211540031 176.88948077154552 428.07479871912165 238.79639240378398 504.80697855144547 -156.60792602420395 -195.09928209556648
leaf_weight=7749 14002 6164 18519 24852 9385 7696 11131 9265 14013 12401 14195 10869 9162 28513 23226 9274 12692 12447 20487 13955 12381 12497 15608 10723 12462 10930 6184 3217 12344 9505
leaf_count=7749 14002 6164 18519 24852 9385 7696 11131 9265 14013 12401 14195 10869 9162 28513 23226 9274 12692 12447 20487 13955 12381 12497 15608 10723 12462 10930 6184 3217 12344 9505
internal_value=-0.205947 236.242 -177.568 -91.5718 127.491 374.299 -287.836 -44.4079 85.6229 328.414 -145.971 187.768 439.051 -318.441 -63.2374 -217.032 353.568 -302.918 -340.958 -119.782 55.8812 294.59 112.113 0.883543 164.23 415.343 217.923 474.724 -169.858 -204.261
internal_weight=395848 169663 226185 127079 94904 74759 99106 68066 56004 43754 59013 38900 31005 69196 48078 29910 25093 40960 28236 28150 26383 18661 29621 19988 21847 18626 17053 12379 30863 18779
internal_count=395848 169663 226185 127079 94904 74759 99106 68066 56004 43754 59013 38900 31005 69196 48078 29910 25093 40960 28236 28150 26383 18661 29621 19988 21847 18626 17053 12379 30863 18779
is_linear=0
shrinkage=0.05


Tree=27
num_leaves=31
num_cat=0
split_feature=3 3 3 1 50 13 1 1 13 3 3 0 1 6 3 20 1 1 6 3 1 13 3 6 3 41 31 1 1 3
split_gain=5.99341e+12 8.64265e+11 8.22191e+11 1.20151e+11 9.2681e+10 8.16316e+10 7.50443e+10 2.33372e+10 1.65705e+10 1.393e+10 1.25603e+10 9.57607e+09 9.43617e+09 8.40277e+09 3.26566e+09 3.26038e+09 3.04262e+09 2.19205e+09 1.99459e+09 1.9376e+09 1.77882e+09 1.7617e+09 1.70637e+09 1.62791e+09 1.53868e+09 1.45375e+09 1.41981e+09 1.31489e+09 1.17775e+09 1.00554e+09
threshold=36527.81500000001 54051.055000000008 19435.890000000003 27123.580000000005 13801.415000000003 44112.187287209461 63331.605000000003 31804.440000000006 23351.9587473705 40280.370000000003 58740.55000000001 9588.0700000000015 48332.710000000006 67744.416188000017 29466.125000000004 8093.9875000000011 17154.390000000003 21235.825000000004 34438.962106670013 56298.010000000009 11488.010000000002 51016.107912904066 60755.380000000012 42449.954057125004 38176.595000000008 65395.48000000001 25271.425844007452 46356.625000000007 71041.770000000004 5856.1850000000004
decision_type=2 2 2 2 2 2 2 2 2 2 2 2 2 2 2 2 2 2 2 2 2 2 2 2 2 2 2 2 2 2
left_child=2 5 4 8 11 9 10 14 17 24 19 15 27 25 -5 29 -6 -4 -9 -3 -13 -14 -12 -11 -2 -8 -10 -7 -15 -1
right_child=1 6 3 7 16 12 13 18 26 23 22 20 21 28 -16 -17 -18 -19 -20 -21 -22 -23 -24 -25 -26 -27 -28 -29 -30 -31
leaf_value=-373.96714141906773 47.047764940345743 269.28917910189568 -165.19656209359928 -64.938668949411792 -215.58332564139357 145.6900402246317 385.30234303217395 -4.7380459919671738 -116.51803438301624 99.436890468162503 327.0362024912169 -288.55392778625782 199.99812643144048 447.98766536543053 -37.216786328600172 -307.0673361319885 -185.1217460589732 -139.89173060947886 25.665579553202377 300.57721312637324 -262.51852859852534 233.43724960574056 355.1720545102803 122.9112180813346 72.122533390779836 413.26878749181964 -92.638080012852811 171.79504500884104 494.40872817955119 -332.21662854574515
leaf_weight=1630 10912 7621 17079 24865 15817 7878 9183 10744 9356 13946 9393 21947 10861 9222 18548 25362 17017 17154 10834 14109 9358 6180 12641 15700 13926 9407 18597 12442 1604 12515
leaf_count=1630 10912 7621 17079 24865 15817 7878 9183 10744 9356 13946 9393 21947 10861 9222 18548 25362 17017 17154 10834 14109 9358 6180 12641 15700 13926 9407 18597 12442 1604 12515
internal_value=-0.19565 229.899 -164.7 -79.5102 -269.231 127.762 358.088 -31.9712 -129.194 88.7273 316.577 -301.427 184.686 419.847 -53.0946 -317.794 -199.796 -152.516 10.5272 289.604 -280.771 212.125 343.178 111.868 61.1065 399.454 -100.631 161.674 454.865 -337.028
internal_weight=395848 165025 230823 127177 103646 91845 73180 64991 62186 54484 43764 70812 37361 29416 43413 39507 32834 34233 21578 21730 31305 17041 22034 29646 24838 18590 27953 20320 10826 14145
internal_count=395848 165025 230823 127177 103646 91845 73180 64991 62186 54484 43764 70812 37361 29416 43413 39507 32834 34233 21578 21730 31305 17041 22034 29646 24838 18590 27953 20320 10826 14145
is_linear=0
shrinkage=0.05


Tree=28
num_leaves=31
num_cat=0
split_feature=3 3 1 3 53 41 2 2 41 1 2 3 2 1 2 3 32 20 1 3 32 3 2 1 14 2 1 50 2 3
split_gain=5.40936e+12 7.6283e+11 7.57603e+11 1.01333e+11 9.75091e+10 7.04192e+10 6.77407e+10 2.22356e+10 1.32538e+10 1.32497e+10 1.13457e+10 8.673e+09 7.61678e+09 6.85566e+09 3.62872e+09 2.67967e+09 2.38512e+09 2.14202e+09 2.04385e+09 1.85262e+09 1.63729e+09 1.57664e+09 1.49001e+09 1.391e+09 1.31949e+09 1.23263e+09 1.17296e+09 1.07689e+09 7.81693e+08 5.63084e+08
threshold=36804.17500000001 54051.055000000008 19954.705000000005 27202.255000000001 13799.995000000001 45001.890000000007 63162.760000000002 31681.145 23494.420000000002 41080.255000000012 58363.025000000009 9342.8550000000014 67688.240000000005 49237.835000000006 17323.145000000004 29466.125000000004 6984.9065335448549 11037.835400000002 34493.635000000002 60755.380000000012 21866.086094578201 38831.280000000006 56215.035000000011 43082.240000000005 65385.858 47400.005000000012 26117.030000000002 70989.840000000011 50957.340000000004 16586.705000000005
decision_type=2 2 2 2 2 2 2 2 2 2 2 2 2 2 2 2 2 2 2 2 2 2 2 2 2 2 2 2 2 2
left_child=2 5 4 8 11 9 10 15 20 21 22 16 24 25 29 -5 -1 -13 -9 -12 -4 -2 -3 -11 -8 -7 -10 -14 -15 -6
right_child=1 6 3 7 14 13 12 18 26 23 19 17 27 28 -16 -17 -18 -19 -20 -21 -22 -23 -24 -25 -26 -27 -28 -29 -30 -31
leaf_value=-329.32152951214823 51.118890038359943 255.80757228836842 -150.15267417688605 -60.832525337017266 -215.25953829405739 152.37043432280657 365.98276520155832 -4.5110907145099155 -103.5132902329791 102.10346714795114 309.23043163615563 -279.1771644040175 425.6648600453907 196.76835711472782 -172.19306582932037 -35.384999791828285 -297.6401643556664 -254.55596894393716 25.258922621291266 337.36288458105219 -126.79705044126561 75.598495690172996 283.80888291517323 123.9951994408616 392.59581067456418 176.42593811889253 -82.981599307408374 470.46274697259406 221.87600608020171 -196.55068546919085
leaf_weight=7773 13900 7643 18594 23420 6344 12478 9225 10768 13922 17107 10925 23768 9253 6254 20143 18530 25203 14059 12410 12603 12581 12486 12555 12601 9407 9290 13903 1569 6147 10987
leaf_count=7773 13900 7643 18594 23420 6344 12478 9225 10768 13922 17107 10925 23768 9253 6254 20143 18530 25203 14059 12410 12603 12581 12486 12555 12601 9407 9290 13903 1569 6147 10987
internal_value=-0.185867 220.218 -155.189 -70.8742 -251.846 122.956 340.184 -27.8758 -118.339 88.4876 300.702 -286.365 398.797 179.541 -186.625 -49.5919 -305.108 -270.026 11.4284 324.3 -140.727 62.7028 273.213 111.389 379.419 162.637 -93.2545 432.16 209.214 -203.399
internal_weight=395848 163443 232405 124128 108277 90263 73180 65128 59000 56094 43726 70803 29454 34169 37474 41950 32976 37827 23178 23528 31175 26386 20198 29708 18632 21768 27825 10822 12401 17331
internal_count=395848 163443 232405 124128 108277 90263 73180 65128 59000 56094 43726 70803 29454 34169 37474 41950 32976 37827 23178 23528 31175 26386 20198 29708 18632 21768 27825 10822 12401 17331
is_linear=0
shrinkage=0.05


Tree=29
num_leaves=31
num_cat=0
split_feature=3 1 32 1 1 1 3 16 3 3 13 44 6 41 2 32 11 3 1 2 44 1 2 6 2 2 1 16 2 2
split_gain=4.88223e+12 7.80328e+11 6.051e+11 1.04902e+11 7.46053e+10 6.66628e+10 4.32651e+10 1.67454e+10 1.23893e+10 1.14818e+10 1.05316e+10 9.30512e+09 8.04731e+09 6.27655e+09 3.00833e+09 2.63981e+09 2.58226e+09 2.11226e+09 1.96897e+09 1.87103e+09 1.69054e+09 1.60479e+09 1.60239e+09 1.2565e+09 1.2523e+09 1.25193e+09 1.09162e+09 1.03506e+09 9.30225e+08 3.80007e+08
threshold=34890.805000000008 51574.955000000009 18165.146400963735 25897.825000000004 61872.555000000008 43232.355000000003 11839.565000000002 29799.856906846089 39037.970000000008 57372.005000000012 66994.137627722565 21523.020000000004 47045.422913515002 8656.3350000000009 32143.985000000004 16066.531159259508 27480.630000000001 54881.835000000014 64268.715000000004 10149.830000000002 41343.410000000011 59683.525000000009 69490.10000000002 36805.693027740002 23331.385000000006 49463.505000000012 6319.4150000000009 45503.632124724791 19900.815000000002 16862.045000000002
decision_type=2 2 2 2 2 2 2 2 2 2 2 2 2 2 2 2 2 2 2 2 2 2 2 2 2 2 2 2 2 2
left_child=2 5 6 11 9 8 13 16 23 17 18 28 27 26 -9 -8 -5 -3 -6 -15 -10 -11 -12 -2 -13 -14 -1 -7 -4 -17
right_child=1 4 3 7 10 12 15 14 20 21 22 24 25 19 -16 29 -18 -19 -20 -21 -22 -23 -24 -25 -26 -27 -28 -29 -30 -31
leaf_value=-327.32512401106305 26.643404861727511 222.19792327168204 -161.65824120349629 -78.865729372696833 333.02969969342257 120.57873282704621 -221.9774420935511 -30.299207258356638 74.889409745584814 282.53265661693007 391.71487459105782 -123.90838095972094 165.68089608892956 -273.51711824806614 2.2643931422258223 -193.62425255467929 -54.41882577999376 256.47137029482667 363.14965839502793 -253.38050819694055 99.091579515840181 308.62567348409766 427.48756574794874 49.811080095911649 -102.1605592568383 192.55354034181241 -294.88872233521482 143.76216632138579 -144.73840075289817 -178.70885729530224
leaf_weight=3176 9409 7708 17069 19993 10764 12514 7797 16959 12453 12562 9170 14160 13938 30121 12191 9505 23496 10786 10941 18696 17155 11099 4753 15483 12430 6290 14151 7825 15500 7754
leaf_count=3176 9409 7708 17069 19993 10764 12514 7797 16959 12453 12562 9170 14160 13938 30121 12191 9505 23496 10786 10941 18696 17155 11099 4753 15483 12430 6290 14151 7825 15500 7754
internal_value=-0.176574 199.272 -154.773 -86.2594 316.72 103.177 -253.785 -46.0032 67.0537 271.702 369.985 -135.688 151.707 -274.981 -16.6806 -197.831 -65.6577 242.187 348.212 -265.805 88.9122 294.772 403.927 41.0539 -113.742 174.037 -300.834 129.498 -153.606 -186.923
internal_weight=395848 172850 222998 131798 77783 95067 91200 72639 54500 42155 35628 59159 40567 66144 29150 25056 43489 18494 21705 48817 29608 23661 13923 24892 26590 20228 17327 20339 32569 17259
internal_count=395848 172850 222998 131798 77783 95067 91200 72639 54500 42155 35628 59159 40567 66144 29150 25056 43489 18494 21705 48817 29608 23661 13923 24892 26590 20228 17327 20339 32569 17259
is_linear=0
shrinkage=0.05


Tree=30
num_leaves=31
num_cat=0
split_feature=6 13 13 47 13 14 3 19 32 16 13 3 13 13 31 41 13 32 44 2 3 2 13 13 3 2 3 31 16 6
split_gain=4.4008e+12 6.21339e+11 6.17137e+11 8.66362e+10 7.62675e+10 5.77496e+10 5.52226e+10 1.59207e+10 1.17585e+10 1.08298e+10 8.38381e+09 7.16935e+09 7.02125e+09 5.64308e+09 3.42844e+09 2.34696e+09 1.88781e+09 1.46956e+09 1.46716e+09 1.40838e+09 1.35558e+09 1.29297e+09 1.29172e+09 1.20556e+09 1.14524e+09 1.03151e+09 1.02768e+09 8.89626e+08 6.32789e+08 4.43716e+08
threshold=36805.693027740002 54066.577356760019 20198.75384535245 13801.220000000001 27627.277359069642 45016.908500000005 62929.92500000001 32194.510991900112 23802.178638751433 40998.380002474783 58434.031835973037 9114.3550000000014 67747.555376337419 49142.857520736878 17422.01269545258 10875.370000000001 29632.704024224393 6629.1746069769497 22355.670000000002 64424.000000000007 34659.290000000001 38774.500000000007 60751.879752260436 56290.916539430727 42896.220000000008 26427.240000000002 47475.515000000007 71285.501634123604 51021.941234646962 16586.411960395006
decision_type=2 2 2 2 2 2 2 2 2 2 2 2 2 2 2 2 2 2 2 2 2 2 2 2 2 2 2 2 2 2
left_child=2 5 3 11 8 9 10 16 18 21 23 17 19 26 29 -13 -6 -1 -4 -8 -9 -2 -12 -3 -11 -10 -7 -14 -15 -5
right_child=1 6 4 14 7 13 12 20 25 24 22 15 27 28 -16 -17 -18 -19 -20 -21 -22 -23 -24 -25 -26 -27 -28 -29 -30 -31
